FANN_FLO_2.1
num_layers=5
learning_rate=0.700000
connection_rate=0.600000
network_type=0
learning_momentum=0.000000
training_algorithm=0
train_error_function=1
train_stop_function=0
cascade_output_change_fraction=0.010000
quickprop_decay=-0.000100
quickprop_mu=1.750000
rprop_increase_factor=1.225000
rprop_decrease_factor=0.325000
rprop_delta_min=-10.000000
rprop_delta_max=10.000000
rprop_delta_zero=0.100000
cascade_output_stagnation_epochs=12
cascade_candidate_change_fraction=0.010000
cascade_candidate_stagnation_epochs=12
cascade_max_out_epochs=150
cascade_max_cand_epochs=150
cascade_num_candidate_groups=2
bit_fail_limit=2.99999999999999988898e-02
cascade_candidate_limit=1.00000000000000000000e+03
cascade_weight_multiplier=4.00000000000000022204e-01
cascade_activation_functions_count=10
cascade_activation_functions=3 5 7 8 10 11 14 15 16 17 
cascade_activation_steepnesses_count=4
cascade_activation_steepnesses=2.50000000000000000000e-01 5.00000000000000000000e-01 7.50000000000000000000e-01 1.00000000000000000000e+00 
layer_sizes=146 31 32 33 2 
scale_included=0
neurons (num_inputs, activation_function, activation_steepness)=(0, 0, 0.00000000000000000000e+00) (0, 0, 0.00000000000000000000e+00) (0, 0, 0.00000000000000000000e+00) (0, 0, 0.00000000000000000000e+00) (0, 0, 0.00000000000000000000e+00) (0, 0, 0.00000000000000000000e+00) (0, 0, 0.00000000000000000000e+00) (0, 0, 0.00000000000000000000e+00) (0, 0, 0.00000000000000000000e+00) (0, 0, 0.00000000000000000000e+00) (0, 0, 0.00000000000000000000e+00) (0, 0, 0.00000000000000000000e+00) (0, 0, 0.00000000000000000000e+00) (0, 0, 0.00000000000000000000e+00) (0, 0, 0.00000000000000000000e+00) (0, 0, 0.00000000000000000000e+00) (0, 0, 0.00000000000000000000e+00) (0, 0, 0.00000000000000000000e+00) (0, 0, 0.00000000000000000000e+00) (0, 0, 0.00000000000000000000e+00) (0, 0, 0.00000000000000000000e+00) (0, 0, 0.00000000000000000000e+00) (0, 0, 0.00000000000000000000e+00) (0, 0, 0.00000000000000000000e+00) (0, 0, 0.00000000000000000000e+00) (0, 0, 0.00000000000000000000e+00) (0, 0, 0.00000000000000000000e+00) (0, 0, 0.00000000000000000000e+00) (0, 0, 0.00000000000000000000e+00) (0, 0, 0.00000000000000000000e+00) (0, 0, 0.00000000000000000000e+00) (0, 0, 0.00000000000000000000e+00) (0, 0, 0.00000000000000000000e+00) (0, 0, 0.00000000000000000000e+00) (0, 0, 0.00000000000000000000e+00) (0, 0, 0.00000000000000000000e+00) (0, 0, 0.00000000000000000000e+00) (0, 0, 0.00000000000000000000e+00) (0, 0, 0.00000000000000000000e+00) (0, 0, 0.00000000000000000000e+00) (0, 0, 0.00000000000000000000e+00) (0, 0, 0.00000000000000000000e+00) (0, 0, 0.00000000000000000000e+00) (0, 0, 0.00000000000000000000e+00) (0, 0, 0.00000000000000000000e+00) (0, 0, 0.00000000000000000000e+00) (0, 0, 0.00000000000000000000e+00) (0, 0, 0.00000000000000000000e+00) (0, 0, 0.00000000000000000000e+00) (0, 0, 0.00000000000000000000e+00) (0, 0, 0.00000000000000000000e+00) (0, 0, 0.00000000000000000000e+00) (0, 0, 0.00000000000000000000e+00) (0, 0, 0.00000000000000000000e+00) (0, 0, 0.00000000000000000000e+00) (0, 0, 0.00000000000000000000e+00) (0, 0, 0.00000000000000000000e+00) (0, 0, 0.00000000000000000000e+00) (0, 0, 0.00000000000000000000e+00) (0, 0, 0.00000000000000000000e+00) (0, 0, 0.00000000000000000000e+00) (0, 0, 0.00000000000000000000e+00) (0, 0, 0.00000000000000000000e+00) (0, 0, 0.00000000000000000000e+00) (0, 0, 0.00000000000000000000e+00) (0, 0, 0.00000000000000000000e+00) (0, 0, 0.00000000000000000000e+00) (0, 0, 0.00000000000000000000e+00) (0, 0, 0.00000000000000000000e+00) (0, 0, 0.00000000000000000000e+00) (0, 0, 0.00000000000000000000e+00) (0, 0, 0.00000000000000000000e+00) (0, 0, 0.00000000000000000000e+00) (0, 0, 0.00000000000000000000e+00) (0, 0, 0.00000000000000000000e+00) (0, 0, 0.00000000000000000000e+00) (0, 0, 0.00000000000000000000e+00) (0, 0, 0.00000000000000000000e+00) (0, 0, 0.00000000000000000000e+00) (0, 0, 0.00000000000000000000e+00) (0, 0, 0.00000000000000000000e+00) (0, 0, 0.00000000000000000000e+00) (0, 0, 0.00000000000000000000e+00) (0, 0, 0.00000000000000000000e+00) (0, 0, 0.00000000000000000000e+00) (0, 0, 0.00000000000000000000e+00) (0, 0, 0.00000000000000000000e+00) (0, 0, 0.00000000000000000000e+00) (0, 0, 0.00000000000000000000e+00) (0, 0, 0.00000000000000000000e+00) (0, 0, 0.00000000000000000000e+00) (0, 0, 0.00000000000000000000e+00) (0, 0, 0.00000000000000000000e+00) (0, 0, 0.00000000000000000000e+00) (0, 0, 0.00000000000000000000e+00) (0, 0, 0.00000000000000000000e+00) (0, 0, 0.00000000000000000000e+00) (0, 0, 0.00000000000000000000e+00) (0, 0, 0.00000000000000000000e+00) (0, 0, 0.00000000000000000000e+00) (0, 0, 0.00000000000000000000e+00) (0, 0, 0.00000000000000000000e+00) (0, 0, 0.00000000000000000000e+00) (0, 0, 0.00000000000000000000e+00) (0, 0, 0.00000000000000000000e+00) (0, 0, 0.00000000000000000000e+00) (0, 0, 0.00000000000000000000e+00) (0, 0, 0.00000000000000000000e+00) (0, 0, 0.00000000000000000000e+00) (0, 0, 0.00000000000000000000e+00) (0, 0, 0.00000000000000000000e+00) (0, 0, 0.00000000000000000000e+00) (0, 0, 0.00000000000000000000e+00) (0, 0, 0.00000000000000000000e+00) (0, 0, 0.00000000000000000000e+00) (0, 0, 0.00000000000000000000e+00) (0, 0, 0.00000000000000000000e+00) (0, 0, 0.00000000000000000000e+00) (0, 0, 0.00000000000000000000e+00) (0, 0, 0.00000000000000000000e+00) (0, 0, 0.00000000000000000000e+00) (0, 0, 0.00000000000000000000e+00) (0, 0, 0.00000000000000000000e+00) (0, 0, 0.00000000000000000000e+00) (0, 0, 0.00000000000000000000e+00) (0, 0, 0.00000000000000000000e+00) (0, 0, 0.00000000000000000000e+00) (0, 0, 0.00000000000000000000e+00) (0, 0, 0.00000000000000000000e+00) (0, 0, 0.00000000000000000000e+00) (0, 0, 0.00000000000000000000e+00) (0, 0, 0.00000000000000000000e+00) (0, 0, 0.00000000000000000000e+00) (0, 0, 0.00000000000000000000e+00) (0, 0, 0.00000000000000000000e+00) (0, 0, 0.00000000000000000000e+00) (0, 0, 0.00000000000000000000e+00) (0, 0, 0.00000000000000000000e+00) (0, 0, 0.00000000000000000000e+00) (0, 0, 0.00000000000000000000e+00) (0, 0, 0.00000000000000000000e+00) (0, 0, 0.00000000000000000000e+00) (0, 0, 0.00000000000000000000e+00) (0, 0, 0.00000000000000000000e+00) (0, 0, 0.00000000000000000000e+00) (0, 0, 0.00000000000000000000e+00) (88, 6, 5.00000000000000000000e-01) (88, 6, 5.00000000000000000000e-01) (88, 6, 5.00000000000000000000e-01) (88, 6, 5.00000000000000000000e-01) (88, 6, 5.00000000000000000000e-01) (88, 6, 5.00000000000000000000e-01) (88, 6, 5.00000000000000000000e-01) (88, 6, 5.00000000000000000000e-01) (88, 6, 5.00000000000000000000e-01) (88, 6, 5.00000000000000000000e-01) (88, 6, 5.00000000000000000000e-01) (88, 6, 5.00000000000000000000e-01) (88, 6, 5.00000000000000000000e-01) (88, 6, 5.00000000000000000000e-01) (88, 6, 5.00000000000000000000e-01) (88, 6, 5.00000000000000000000e-01) (88, 6, 5.00000000000000000000e-01) (88, 6, 5.00000000000000000000e-01) (88, 6, 5.00000000000000000000e-01) (88, 6, 5.00000000000000000000e-01) (88, 6, 5.00000000000000000000e-01) (88, 6, 5.00000000000000000000e-01) (88, 6, 5.00000000000000000000e-01) (88, 6, 5.00000000000000000000e-01) (88, 6, 5.00000000000000000000e-01) (88, 6, 5.00000000000000000000e-01) (88, 6, 5.00000000000000000000e-01) (88, 6, 5.00000000000000000000e-01) (88, 6, 5.00000000000000000000e-01) (88, 6, 5.00000000000000000000e-01) (0, 6, 0.00000000000000000000e+00) (19, 6, 5.00000000000000000000e-01) (19, 6, 5.00000000000000000000e-01) (19, 6, 5.00000000000000000000e-01) (19, 6, 5.00000000000000000000e-01) (19, 6, 5.00000000000000000000e-01) (19, 6, 5.00000000000000000000e-01) (19, 6, 5.00000000000000000000e-01) (19, 6, 5.00000000000000000000e-01) (19, 6, 5.00000000000000000000e-01) (19, 6, 5.00000000000000000000e-01) (19, 6, 5.00000000000000000000e-01) (19, 6, 5.00000000000000000000e-01) (19, 6, 5.00000000000000000000e-01) (19, 6, 5.00000000000000000000e-01) (19, 6, 5.00000000000000000000e-01) (19, 6, 5.00000000000000000000e-01) (19, 6, 5.00000000000000000000e-01) (19, 6, 5.00000000000000000000e-01) (19, 6, 5.00000000000000000000e-01) (19, 6, 5.00000000000000000000e-01) (19, 6, 5.00000000000000000000e-01) (19, 6, 5.00000000000000000000e-01) (19, 6, 5.00000000000000000000e-01) (19, 6, 5.00000000000000000000e-01) (19, 6, 5.00000000000000000000e-01) (19, 6, 5.00000000000000000000e-01) (19, 6, 5.00000000000000000000e-01) (19, 6, 5.00000000000000000000e-01) (19, 6, 5.00000000000000000000e-01) (19, 6, 5.00000000000000000000e-01) (19, 6, 5.00000000000000000000e-01) (0, 6, 0.00000000000000000000e+00) (19, 6, 5.00000000000000000000e-01) (20, 6, 5.00000000000000000000e-01) (19, 6, 5.00000000000000000000e-01) (20, 6, 5.00000000000000000000e-01) (19, 6, 5.00000000000000000000e-01) (20, 6, 5.00000000000000000000e-01) (20, 6, 5.00000000000000000000e-01) (19, 6, 5.00000000000000000000e-01) (20, 6, 5.00000000000000000000e-01) (19, 6, 5.00000000000000000000e-01) (20, 6, 5.00000000000000000000e-01) (20, 6, 5.00000000000000000000e-01) (19, 6, 5.00000000000000000000e-01) (20, 6, 5.00000000000000000000e-01) (19, 6, 5.00000000000000000000e-01) (20, 6, 5.00000000000000000000e-01) (20, 6, 5.00000000000000000000e-01) (19, 6, 5.00000000000000000000e-01) (20, 6, 5.00000000000000000000e-01) (19, 6, 5.00000000000000000000e-01) (20, 6, 5.00000000000000000000e-01) (20, 6, 5.00000000000000000000e-01) (19, 6, 5.00000000000000000000e-01) (20, 6, 5.00000000000000000000e-01) (19, 6, 5.00000000000000000000e-01) (20, 6, 5.00000000000000000000e-01) (20, 6, 5.00000000000000000000e-01) (19, 6, 5.00000000000000000000e-01) (20, 6, 5.00000000000000000000e-01) (19, 6, 5.00000000000000000000e-01) (20, 6, 5.00000000000000000000e-01) (20, 6, 5.00000000000000000000e-01) (0, 6, 0.00000000000000000000e+00) (33, 5, 5.00000000000000000000e-01) (0, 5, 0.00000000000000000000e+00) 
connections (connected_to_neuron, weight)=(145, -2.48267345602435577440e+24) (70, -6.83681949962584122091e+24) (81, 3.61788789589742589890e+24) (37, -7.92434048346346609862e+24) (82, 5.48720097932391850443e+23) (61, 1.11412332719062002287e+25) (7, 1.74429203341505295506e+25) (47, 8.33179524381570399994e+24) (131, 1.31129507523462783964e+25) (54, 1.08952654834603742493e+25) (11, 1.08952654834603742493e+25) (25, 9.84262708487710133820e+24) (141, 1.08371226570576864739e+25) (71, 1.27973260154363881875e+25) (46, 1.74429203341505295506e+25) (53, 1.24258428160008314243e+25) (3, 1.01960090699357486768e+25) (127, -5.31325899064540863037e-02) (13, -7.21823871135711669922e-02) (138, 3.12500819563865661621e-02) (19, 1.08952654834603742493e+25) (120, -6.46234452724456787109e-02) (23, -3.62052619457244873047e-02) (68, -7.15737203841127046709e+24) (100, -1.27449612301674029651e+25) (32, 1.43959860916488504974e+24) (41, -1.41732093821428751579e+25) (52, 7.43013533432353732847e+24) (86, -1.03761338340549625182e+25) (94, 8.64960991769085898601e+24) (15, 1.34589685683044111457e+24) (140, 1.94730681134250966227e+24) (8, -1.23166762429402558308e+25) (43, 7.54371945354761984803e+24) (35, -1.53561565458487206855e+25) (79, 1.33448169190884638552e+25) (102, 1.08460671655104117347e+25) (103, 9.60038438099937076340e+24) (62, 1.07736646220266393871e+25) (10, 1.74429203341505295506e+25) (129, 1.74429203341505295506e+25) (55, 1.01217821707956351266e+25) (66, 8.26350136872394917780e+24) (17, 7.11389138502186428269e+24) (59, 7.82800605072165839674e+24) (5, 1.32059632018988958503e+25) (21, 1.30199383027936673850e+25) (122, -1.16809958119108536036e+25) (105, -9.36196606791472770764e+24) (116, -8.78075832364458063797e+24) (14, -4.37840536968179626908e+24) (99, -1.11385226643154776621e+25) (139, -9.29523362956985342362e+24) (112, -7.36357274963155265939e+24) (132, -1.74429203341505295506e+25) (143, -1.69848185765455150176e+25) (60, 5.54377419251647076368e+24) (63, -1.74429203341505295506e+25) (4, -1.74429203341505295506e+25) (88, -7.36357274963155265939e+24) (107, 5.54377419251647076368e+24) (93, -1.69848185765455150176e+25) (142, -1.74429203341505295506e+25) (50, 1.14117263691557481711e+25) (136, 5.54377419251647076368e+24) (78, -1.49529561583036671239e+25) (22, -1.50297870539205860309e+25) (16, -1.13582612243936312463e+25) (85, -1.17845260469558825504e+25) (57, -1.53548455395256987078e+25) (30, -1.53535195116710878752e+25) (137, -2.11022219166010017474e+24) (92, -1.09374422135913751637e+25) (76, -1.74429203341505295506e+25) (87, -1.08841717213533837795e+25) (58, -1.54147168664972754587e+25) (95, -2.81118774480871472968e+24) (111, -1.74429203341505295506e+25) (51, -1.88496567879927295954e+24) (40, -1.28709606445390684236e+25) (69, -3.24485561642998366942e+24) (20, -2.56505906581878662109e-02) (106, -2.79172217528836306239e+24) (135, 2.53054905908959468795e+24) (12, -3.72666587578341488643e+24) (28, -6.35910108685493469238e-02) (118, -3.33723800688883409931e+24) (123, 2.22257351941389858269e+24) (145, -1.44543988200658111289e+25) (18, -3.98050440945600987293e+25) (26, 2.10641339244881764449e+25) (39, -4.61367820587336497470e+25) (41, 3.19490513371302383007e+24) (51, 6.48661399054223510067e+25) (74, 1.01555670293827688101e+26) (85, 4.85091198054324998546e+25) (105, 7.63458457231946749743e+25) (107, 6.34342779473440367496e+25) (110, 6.34342779473440367496e+25) (112, 5.73056052550435517959e+25) (113, 6.30957341244100577539e+25) (129, 7.45082465107383588833e+25) (140, 1.01555670293827688101e+26) (99, 7.23454033128891199374e+25) (138, 5.93624876002120659947e+25) (33, -3.36970835924148559570e-02) (22, 5.95462992787361145020e-02) (10, -5.01404292881488800049e-02) (106, 6.34342779473440367496e+25) (142, 9.11193564534187316895e-02) (42, -1.78677663207054138184e-02) (68, -4.16713869018602663502e+25) (130, -7.42033072299311866692e+25) (70, 8.38166983616325860773e+24) (77, -8.25188307927813038413e+25) (137, 4.32596170672293948938e+25) (76, -6.04115547920493913959e+25) (4, 5.03595408321623357978e+25) (1, 7.83608805743246394681e+24) (126, 1.13374410768677412033e+25) (46, -7.17098234520048306120e+25) (5, 4.39208021559753944974e+25) (40, -8.94063037425558857816e+25) (87, 7.76958209959337798926e+25) (97, 6.31478104177925267160e+25) (53, 5.58948288139913311394e+25) (123, 6.27260993939727455313e+25) (49, 1.01555670293827688101e+26) (8, 1.01555670293827688101e+26) (69, 5.89307453321064591078e+25) (118, 4.81116199117949648157e+25) (119, 4.14181232237561064404e+25) (9, 4.55759907540750803948e+25) (37, 7.68873756446447911054e+25) (31, 7.58043158017425573885e+25) (115, -6.80087076240371658617e+25) (102, -5.45069137169526803011e+25) (12, -5.11230308701441793311e+25) (23, -2.54917848492304473019e+25) (44, -6.48502836271438854818e+25) (29, -5.41183033398901581787e+25) (60, -4.28720121929873178115e+25) (30, -1.01555670293827688101e+26) (121, -9.88885253967679357211e+25) (0, 3.22770185995955043859e+25) (38, -1.01555670293827688101e+26) (108, -1.01555670293827688101e+26) (127, -4.28720121929873178115e+25) (139, 3.22770185995955043859e+25) (101, -9.88885253967679357211e+25) (103, -1.01555670293827688101e+26) (141, 6.64412015551872276323e+25) (11, 3.22770185995955043859e+25) (34, -8.70586477128430999820e+25) (66, -8.75059672520090307265e+25) (104, -6.61297058582878017940e+25) (125, -6.86115484614866534935e+25) (15, -8.93985422178685319150e+25) (120, -8.93908194385314568156e+25) (45, -1.22859579159607365631e+25) (89, -6.36795430025943743495e+25) (86, -1.01555670293827688101e+26) (116, -6.33694054143836402053e+25) (20, -8.97471180614409642710e+25) (79, -1.63670665712886136502e+25) (83, -1.01555670293827688101e+26) (65, -1.09744768294589252502e+25) (67, -7.49369203200094315720e+25) (73, -1.88919904396511125124e+25) (71, 4.01803925633430480957e-02) (6, -1.62538073969792068522e+25) (92, 1.47331555844230478949e+25) (82, -2.16972071637431126432e+25) (24, 7.87444189190864562988e-02) (54, -1.94299049069437577803e+25) (84, 1.29402223162747488358e+25) (145, -6.97726474450469881119e+24) (5, -1.92139963547850071165e+25) (88, 1.01676164443013152212e+25) (97, -2.22703449958350361209e+25) (76, 1.54210279438305992481e+24) (123, 3.13109870317765154686e+25) (7, 4.90210694157784357127e+25) (45, 2.34154023339108871732e+25) (101, 3.68522351900049283974e+25) (135, 3.06198200412078088556e+25) (122, 3.06198200412078088556e+25) (90, 2.76615009834752619609e+25) (104, 3.04563822906294882062e+25) (113, 3.59652237463481406760e+25) (21, 4.90210694157784357127e+25) (18, 3.49212176821101995292e+25) (94, 2.86545148545004405009e+25) (49, 3.72055694460868835449e-02) (65, 8.43772813677787780762e-02) (13, 9.68505516648292541504e-02) (73, 3.06198200412078088556e+25) (80, -5.25701604783535003662e-02) (14, 5.90178444981575012207e-02) (136, -2.01149438569135383301e+25) (105, -3.58180940616189258550e+25) (108, 4.04575210215073343812e+24) (67, -3.98319872748046624689e+25) (19, 2.08815486218010897804e+25) (109, -2.91607040050727227239e+25) (2, 2.43087495303986682087e+25) (84, 3.78233289703985137477e+24) (55, 5.47262398614929257844e+24) (51, -3.46144732069035356717e+25) (64, 2.12006084472254153506e+25) (57, -4.31565431553489767330e+25) (132, 3.75038499218607817401e+25) (102, 3.04814849664926138457e+25) (87, 2.69804944022657539003e+25) (50, 3.02781188364864399417e+25) (9, 4.90210694157784357127e+25) (17, 4.90210694157784357127e+25) (10, 2.84459035726736088902e+25) (68, 2.32234854210416805224e+25) (142, 1.99925518690393967108e+25) (139, 2.19996684728892319366e+25) (28, 3.71136325982148742579e+25) (56, 3.65908377817951113860e+25) (118, -3.28279461595143643825e+25) (100, -2.63106228486313882734e+25) (96, -2.46771847437710180148e+25) (27, -1.23049668093785078738e+25) (44, -3.13034085887479202751e+25) (134, -2.61230259001914741469e+25) (66, -2.06943948225243390191e+25) (126, -4.90210694157784357127e+25) (41, -4.77336245827919163016e+25) (119, 1.55800338925624923878e+25) (54, -4.90210694157784357127e+25) (85, -4.90210694157784357127e+25) (59, -2.06943948225243390191e+25) (144, 1.55800338925624923878e+25) (6, -4.77336245827919163016e+25) (74, -4.90210694157784357127e+25) (25, 3.20710681593291719941e+25) (120, 1.55800338925624923878e+25) (42, -4.20234687369669553831e+25) (107, -4.22393412990320933811e+25) (3, -3.19209816610890756632e+25) (31, -3.31189404203593756238e+25) (62, -4.31528007618127747025e+25) (36, -4.31490510226090043491e+25) (72, -5.93051163112618647251e+24) (26, -3.07382505894126336879e+25) (112, -4.90210694157784357127e+25) (95, -3.05885502158514247696e+25) (82, -4.33210840371863546191e+25) (32, -7.90044897251754298573e+24) (52, -4.90210694157784357127e+25) (70, -5.29744296908111095005e+24) (37, -3.61721828927468589055e+25) (129, -9.11920113477748218082e+24) (11, -4.82796728610992431641e-02) (106, -7.84570252215689840846e+24) (58, 7.11175349531172914017e+24) (29, -1.04733414047867386693e+25) (22, 4.14130911231040954590e-02) (12, -9.37888590050993462523e+24) (23, 6.24630739606216395194e+24) (145, -7.68296419283030779730e+24) (14, -2.11573775971254967583e+25) (30, 1.11960058523704816126e+25) (134, -2.45228508386739224115e+25) (67, 1.69808583507285028058e+24) (38, 3.44778930088413959018e+25) (85, 5.39792608416181402070e+25) (69, 2.57837285287095650683e+25) (47, 4.05796270625059533572e+25) (123, 3.37168141714461580979e+25) (91, 3.37168141714461580979e+25) (96, 3.04592852001991872238e+25) (16, 3.35368491112047992625e+25) (45, 3.96028856681649238264e+25) (36, 5.39792608416181402070e+25) (84, 3.84532832299172706585e+25) (11, 3.15526978798052632030e+25) (93, -8.09487923979759216309e-02) (100, 8.47651287913322448730e-02) (81, -8.29979777336120605469e-03) (27, 3.37168141714461580979e+25) (7, 8.68847444653511047363e-02) (125, 8.09007361531257629395e-02) (34, -2.21494290286694567971e+25) (50, -3.94408673871777637010e+25) (130, 4.45497847080185180140e+24) (43, -4.38607434449256318899e+25) (111, 2.29936497899083873795e+25) (113, -3.21101251751067593264e+25) (124, 2.67674777393487517183e+25) (35, 4.16493057393072941092e+24) (86, 6.02618545944573799039e+24) (75, -3.81155084816476438350e+25) (131, 2.33449724262448415900e+25) (41, -4.75216107124777129890e+25) (2, 4.12971171407408660564e+25) (3, 3.35644849571317881755e+25) (128, 2.97094020254373103398e+25) (78, 3.33405679120560270575e+25) (83, 5.39792608416181402070e+25) (114, 5.39792608416181402070e+25) (19, 3.13230255733910844893e+25) (92, 2.55723935873142372193e+25) (132, 2.20146832429735472466e+25) (138, 2.42248117111594127930e+25) (6, 4.08674587253821050045e+25) (82, 4.02917953996286678385e+25) (56, -3.61482869807531563030e+25) (97, -2.89717683092921519220e+25) (99, -2.71731288560492328266e+25) (66, -1.35495277783750367416e+25) (140, -3.44695607643486690644e+25) (21, -2.87652274158765967252e+25) (71, -2.27875129189801463718e+25) (102, -5.39792608416181402070e+25) (65, -5.25615946958796208860e+25) (89, 1.71558696279432853381e+25) (32, -5.39792608416181402070e+25) (126, -5.39792608416181402070e+25) (64, -2.27875129189801463718e+25) (17, 1.71558696279432853381e+25) (88, -5.25615946958796208860e+25) (79, -5.39792608416181402070e+25) (37, 3.53148563408946819320e+25) (127, 1.71558696279432853381e+25) (136, -4.62739012336850840217e+25) (109, -4.65116106671171903831e+25) (29, -3.51496100133374177229e+25) (13, -3.64687295458340522007e+25) (101, -4.75174709768693156330e+25) (129, -4.75133456128919093180e+25) (48, -6.53032096725100292106e+24) (90, -3.38472195809386056332e+25) (137, -5.39792608416181402070e+25) (72, -3.36823800427257062584e+25) (74, -4.77027540225126893177e+25) (61, -8.69949145439564199048e+24) (46, -5.39792608416181402070e+25) (55, -5.83321591300353031982e+24) (8, -3.98307867976202093708e+25) (76, -1.00414935761360063834e+25) (42, -6.98469355702400207520e-02) (107, -8.63918009807884808880e+24) (52, 7.83104259457072231141e+24) (87, -1.15326076559479226782e+25) (12, 2.61177048087120056152e-02) (73, -1.03274645777108624359e+25) (26, 6.87806848217505637335e+24) (145, -9.34134592426288195672e+24) (15, -2.57240990710878760337e+25) (40, 1.36125145371925621967e+25) (58, -2.98159852671843618878e+25) (95, 2.06453826346292187496e+24) (120, 4.19197452509247149609e+25) (102, 6.56303344310555530295e+25) (12, 3.13489942992687639099e+25) (17, 4.93384743094400427030e+25) (60, 4.09942975367126992919e+25) (73, 4.09942975367126992919e+25) (19, 3.70336588989031533909e+25) (69, 4.07755000592587158203e+25) (26, 4.81509230796211467510e+25) (23, 6.56303344310555530295e+25) (117, 4.67531871262244415293e+25) (128, 3.83632487299821131761e+25) (97, 9.46524962782859802246e-02) (0, 6.54558092355728149414e-03) (66, 4.19724807143211364746e-02) (25, 4.09942975367126992919e+25) (37, -4.88413386046886444092e-02) (54, -5.99543489515781402588e-02) (133, -2.69302541271850017075e+25) (101, -4.79539412354517022907e+25) (99, 5.41653051868372819719e+24) (98, -5.33278086200420430365e+25) (132, 2.79566410167898669287e+25) (39, -3.90409359441215291497e+25) (136, 3.25450463939199428817e+25) (14, 5.06390513510911761082e+24) (16, 7.32696792564040185833e+24) (45, -4.63424836083290352826e+25) (79, 2.83838715611267260702e+25) (51, -5.77788052733297224854e+25) (3, 5.02108401148264861642e+25) (29, 4.08091334750280487723e+25) (57, 3.61220883267433939547e+25) (87, 4.05369190871012358949e+25) (48, 6.56303344310555530295e+25) (109, 6.56303344310555530295e+25) (142, 3.80839062505565272723e+25) (59, 3.10920108421617742502e+25) (8, 2.67664793868379088581e+25) (76, 2.94535807175179132511e+25) (5, 4.96884336702801199371e+25) (75, 4.89885149485990721157e+25) (108, -4.39506853924037294880e+25) (137, -3.52251630032299860930e+25) (106, -3.30382950959671457245e+25) (93, -1.64741212565063695136e+25) (27, -4.19096333599029986245e+25) (42, -3.49740768856694534208e+25) (138, -2.77060244417480008411e+25) (1, -6.56303344310555530295e+25) (52, -6.39066751192227049562e+25) (22, 2.08587816866499748451e+25) (123, -6.56303344310555530295e+25) (84, -6.56303344310555530295e+25) (103, -2.77060244417480008411e+25) (90, 2.08587816866499748451e+25) (30, -6.39066751192227049562e+25) (2, -6.56303344310555530295e+25) (68, 4.29372765890189243282e+25) (64, 2.08587816866499748451e+25) (116, -5.62618230558802203577e+25) (119, -5.65508462315508752009e+25) (126, -4.27364122355800133694e+25) (9, -4.43402399219451357896e+25) (24, -5.77738164736902782245e+25) (114, -5.77688025188639389474e+25) (56, -7.93989980694649870326e+24) (67, -4.11529636497990555733e+25) (134, -6.56303344310555530295e+25) (100, -4.09525409588294666200e+25) (91, -5.79990867437957926953e+25) (104, -1.05772546671688675272e+25) (28, -6.56303344310555530295e+25) (125, -7.09230495576126631444e+24) (47, -4.84280120386903442928e+25) (62, -1.22089245842187362459e+25) (118, -4.53163161873817443848e-02) (80, -1.05039198023328413725e+25) (70, 9.52133610726234709085e+24) (122, -1.40218476095495931219e+25) (38, 9.82825830578804016113e-02) (83, -1.25565797512905393544e+25) (43, 8.36262764147475324967e+24) (145, -1.34402280611049769135e+25) (11, -3.70121352231710663471e+25) (47, 1.95861269132018823809e+25) (50, -4.28996004365078791727e+25) (67, 2.97070808173366631989e+24) (142, 6.03148082295533785275e+25) (97, 9.44300041113915415939e+25) (86, 4.51054827617280631096e+25) (106, 7.09890328978761502740e+25) (27, 5.89833502667515145308e+25) (6, 5.89833502667515145308e+25) (141, 5.32847011633861622927e+25) (121, 5.86685708317179082042e+25) (108, 6.92803860853559024870e+25) (131, 9.44300041113915415939e+25) (73, 6.72692976731415602098e+25) (116, 5.51973169157188767103e+25) (26, 9.40701141953468322754e-02) (132, -2.79440805315971374512e-02) (30, 5.80686554312705993652e-02) (74, 5.89833502667515145308e+25) (55, -8.79298746585845947266e-02) (62, -3.85189056396484375000e-02) (36, -3.87474962355133512879e+25) (51, -6.89968252257479248293e+25) (83, 7.79357580279066931914e+24) (54, -7.67288841613299199068e+25) (60, 4.02243043363121109905e+25) (59, -5.61728106279788058656e+25) (31, 4.68260637802779982567e+25) (13, 7.28629588726539599898e+24) (87, 1.05420224252445487121e+25) (84, -6.66782800393744897855e+25) (136, 4.08391570985712628175e+25) (80, -8.31331087000057679886e+25) (134, 7.22442760396251881475e+25) (17, 5.87170323985051993999e+25) (99, 5.19730268255553726081e+25) (35, 5.83248976545266888029e+25) (112, 9.44300041113915415939e+25) (124, 9.44300041113915415939e+25) (23, 5.47958623322919046836e+25) (125, 4.47358638595411828990e+25) (111, 3.85120666330160814883e+25) (140, 4.23781382220638822313e+25) (58, 7.14925644653920206004e+25) (2, 7.04855013303595669830e+25) (44, -6.32368774674222687998e+25) (15, -5.06824346303753122228e+25) (14, -4.75359854591311798600e+25) (42, -2.37031477127219530170e+25) (76, -6.03000708134915431821e+25) (18, -5.03211227336201023678e+25) (40, -3.98638699005566641903e+25) (20, -9.44300041113915415939e+25) (38, -9.19499985955638345267e+25) (34, 3.00122772991083367828e+25) (41, -9.44300041113915415939e+25) (5, -9.44300041113915415939e+25) (113, -3.98638699005566641903e+25) (100, 3.00122772991083367828e+25) (37, -9.19499985955638345267e+25) (72, -9.44300041113915415939e+25) (107, 6.17793172190430912305e+25) (61, 3.00122772991083367828e+25) (21, -8.09501639924644554211e+25) (92, -8.13661044721563882089e+25) (103, -6.14896914074491917194e+25) (118, -6.37973832674275639815e+25) (19, -8.31258998146477426328e+25) (49, -8.31187241060502277341e+25) (93, -1.14239187978609476030e+25) (7, -5.92114621897513085981e+25) (53, -9.44300041113915415939e+25) (95, -5.89230849861144363464e+25) (96, -8.34499995389934638853e+25) (117, -1.52186457110176119579e+25) (133, -9.44300041113915415939e+25) (9, -1.02044323667196851540e+25) (130, -6.96789677409997842106e+25) (4, -1.75664105685456967120e+25) (126, -9.56174284219741821289e-02) (81, -1.51133309794823737222e+25) (46, 1.36993742705656047579e+25) (77, -2.01747610237438355403e+25) (98, -1.41915082931518554688e-02) (64, -1.80665524535292077151e+25) (8, 1.20322345746864696145e+25) (145, -1.09997946650266040984e+25) (9, -3.02913233893408979519e+25) (17, 1.60294969858573201394e+25) (37, -3.51097239968212465882e+25) (44, 2.43117459626660007091e+24) (59, 4.93625073457547237025e+25) (71, 7.72828992387146624595e+25) (76, 3.69149488099547881270e+25) (79, 5.80984476323117468976e+25) (100, 4.82728508381183181985e+25) (116, 4.82728508381183181985e+25) (128, 4.36089912824610592737e+25) (144, 4.80152007351217619301e+25) (60, 5.67000293507053401449e+25) (53, 7.72828992387146624595e+25) (58, 5.50541315304347179355e+25) (39, 4.51745223046831162366e+25) (28, -7.02929198741912841797e-02) (33, 4.17717173695564270020e-02) (126, 7.75714144110679626465e-02) (91, 4.82728508381183181985e+25) (30, 3.48195657134056091309e-02) (40, 2.35517024993896484375e-02) (13, -3.17116576126298942740e+25) (43, -5.64680659107164802955e+25) (10, 6.37824240799247268158e+24) (125, -6.27960794932856187875e+25) (61, 3.29201924871723691236e+25) (1, -4.59725799265800430897e+25) (78, 3.83232386507549187370e+25) (29, 5.96300869532184802335e+24) (141, 8.62770362704960567011e+24) (5, -5.45705162714587820657e+25) (112, 3.34232593515528014539e+25) (120, -6.80372978011355890770e+25) (21, 5.91257145573797387294e+25) (51, 4.80547847580262093040e+25) (97, 4.25354458901411605879e+25) (108, 4.77340841774713566921e+25) (88, 7.72828992387146624595e+25) (95, 7.72828992387146624595e+25) (73, 4.48456649619358036703e+25) (63, 3.66123938155819835211e+25) (94, 3.15187838092434230278e+25) (27, 3.46829526530571648998e+25) (45, 5.85105491830155660336e+25) (82, 5.76863460816088898344e+25) (103, -5.17540352323946989580e+25) (67, -4.14793122647170350433e+25) (109, -3.89041761202895135986e+25) (7, -1.93990738616269542020e+25) (64, -4.93505484909110918528e+25) (106, -4.11835729170546870830e+25) (80, -3.26252240585224336295e+25) (36, -7.72828992387146624595e+25) (99, -7.52532136551212595901e+25) (139, 2.45623457235713304140e+25) (136, -7.72828992387146624595e+25) (74, -7.72828992387146624595e+25) (122, -3.26252240585224336295e+25) (81, 2.45623457235713304140e+25) (127, -7.52532136551212595901e+25) (4, -7.72828992387146624595e+25) (3, 5.05609115845858807555e+25) (16, 2.45623457235713304140e+25) (111, -6.62509418734143478809e+25) (56, -6.65912939704615999499e+25) (6, -5.03241807111045285969e+25) (107, -5.22127886841053359070e+25) (98, -6.80314293906072600178e+25) (18, -6.80255307371289932003e+25) (65, -9.34958033999872762734e+24) (8, -4.84595953531974670940e+25) (47, -7.72828992387146624595e+25) (52, -4.82235829794364983681e+25) (15, -6.82967221435365946934e+25) (2, -1.24552666965941651725e+25) (83, -7.72828992387146624595e+25) (50, -8.35154941499559717844e+24) (11, -5.70263075016448048722e+25) (55, -1.43766634158560818275e+25) (31, -5.30043654143810272217e-02) (143, -1.23689841375388845704e+25) (118, 1.12118625915704728260e+25) (119, -1.65114582088031790915e+25) (12, 9.88606438040733337402e-02) (110, -1.47860323439328860947e+25) (93, 9.84744254531540935193e+24) (145, -7.34799145543741660253e+24) (65, -2.02349369360635459598e+25) (83, 1.07078475147946214241e+25) (86, -2.34536700980750434834e+25) (126, 1.62404613471959769730e+24) (71, 3.29747098918344767864e+25) (123, 5.16258046186326698072e+25) (24, 2.46596076071577465211e+25) (29, 3.88103911892122202978e+25) (6, 3.22467208591674490130e+25) (117, 3.22467208591674490130e+25) (114, 2.91312279888751961456e+25) (56, 3.20746234870424759477e+25) (11, 3.78762640863335641671e+25) (13, 5.16258046186326698072e+25) (129, 3.67767805127614717525e+25) (54, 3.01770007346477230153e+25) (103, -1.38202756643295288086e-02) (130, -2.75065153837203979492e-02) (99, 5.47535046935081481934e-02) (32, 3.22467208591674490130e+25) (12, -2.94220000505447387695e-02) (88, 9.75876972079277038574e-02) (80, -2.11836750174357645762e+25) (4, -3.77212649507999275024e+25) (58, 4.26079926799162240768e+24) (133, -4.19484341738314355536e+25) (100, 2.19911337373544406864e+25) (19, -3.07102112818353877308e+25) (16, 2.56004116252406619465e+25) (10, 3.98342983063166309630e+24) (50, 5.76354707094928486511e+24) (143, -3.64536825141602651598e+25) (97, 2.23272529181657906597e+25) (67, -4.54497263069851347950e+25) (92, 3.94966196528625828883e+25) (95, 3.21011171198261109530e+25) (73, 2.84141828132281919105e+25) (78, 3.18869199814198832273e+25) (98, 5.16258046186326698072e+25) (142, 5.16258046186326698072e+25) (82, 2.99573972790010194585e+25) (89, 2.44574796972705943451e+25) (122, 2.10549323343574205045e+25) (132, 2.31686211180019517762e+25) (3, 3.90856708570879516968e+25) (0, 3.85351115213364416542e+25) (53, -3.45722447512605853777e+25) (38, -2.77086097269939620461e+25) (135, -2.59883987439337671607e+25) (102, -1.29587476764077482951e+25) (35, -3.29667134753376654705e+25) (47, -2.75111261957197022542e+25) (17, -2.17939473158058828030e+25) (84, -5.16258046186326698072e+25) (15, -5.02699522392072721468e+25) (112, 1.64078827072295562191e+25) (115, -5.16258046186326698072e+25) (59, -5.16258046186326698072e+25) (124, -2.17939473158058828030e+25) (110, 1.64078827072295562191e+25) (138, -5.02699522392072721468e+25) (22, -5.16258046186326698072e+25) (69, 3.37751572408685504024e+25) (30, 1.64078827072295562191e+25) (104, -4.42563492965462338594e+25) (37, -4.44837219867329113212e+25) (7, -3.36170544748288998438e+25) (87, -3.48786682747698683220e+25) (64, -4.54457690739714181017e+25) (1, -4.54418346490091187921e+25) (131, -6.24560069495382375976e+24) (40, -3.23714995122868626307e+25) (41, -5.16258046186326698072e+25) (93, -3.22138462201465651855e+25) (94, -4.56229441716535500221e+25) (75, -8.32016470184364217886e+24) (139, -5.16258046186326698072e+25) (136, -5.57886261606832577236e+24) (57, -3.80941950542121975604e+25) (5, -9.60367707218054835968e+24) (43, -6.05043806135654449463e-02) (121, -8.26250575067569362410e+24) (116, 7.48957576896882027371e+24) (109, -1.10297275977074293814e+25) (31, 4.13954257965087890625e-03) (68, -9.87714316865612084255e+24) (18, 6.57812547067422860483e+24) (145, -1.77366614514024395781e+25) (13, -4.88438022868558719924e+25) (24, 2.58471766538598924587e+25) (54, -5.66132980773949406435e+25) (80, 3.92033796471901228578e+24) (84, 7.95956310518972636327e+25) (141, 1.24616404431118209294e+26) (90, 5.95243614948411916660e+25) (8, 9.36820799374965139623e+25) (134, 7.78384524278712059235e+25) (28, 7.78384524278712059235e+25) (82, 7.03181347941283884045e+25) (69, 7.74230784237521022621e+25) (61, 9.14272461282183226296e+25) (79, 1.24616404431118209294e+26) (105, 8.87732688111098489114e+25) (10, 7.28422253572611880685e+25) (81, 9.70222800970077514648e-03) (137, -8.33340287208557128906e-02) (77, -1.48440897464752197266e-02) (99, 7.78384524278712059235e+25) (113, -4.64192293584346771240e-02) (111, 6.77003785967826843262e-02) (136, -5.11338292429146538430e+25) (140, -9.10529955156624448757e+25) (124, 1.02849967002749054998e+25) (52, -1.01256757311254866365e+26) (59, 5.30827876912045606945e+25) (95, -7.41296170834744152928e+25) (6, 6.17949054572744280071e+25) (109, 9.61562727695868992946e+24) (19, 1.39120903934401972902e+25) (12, -8.79932647160648036086e+25) (73, 5.38943000279626339414e+25) (121, -1.09708236065166046018e+26) (126, 9.53385920696839985231e+25) (120, 7.74870668629477278267e+25) (76, 6.85873413905120492981e+25) (70, 7.69695238844451843935e+25) (131, 1.24616404431118209294e+26) (5, 1.24616404431118209294e+26) (64, 7.23124674978808511553e+25) (50, 5.90365679534746172580e+25) (107, 5.08233032731018036532e+25) (29, 5.59251072549069276620e+25) (68, 9.43465708984955846126e+25) (66, 9.30175889764969794555e+25) (129, -8.34517738758372435721e+25) (0, -6.68840453172416145785e+25) (4, -6.27317966293849706773e+25) (55, -3.12802933938783142323e+25) (45, -7.95761679627877872776e+25) (60, -6.64073111798334898821e+25) (65, -5.26070939719916977882e+25) (9, -1.24616404431118209294e+26) (74, -1.21343620769922469857e+26) (83, 3.96062828980952240855e+25) (32, -1.24616404431118209294e+26) (44, -1.24616404431118209294e+26) (63, -5.26070939719916977882e+25) (114, 3.96062828980952240855e+25) (86, -1.21343620769922469857e+26) (97, -1.24616404431118209294e+26) (87, 8.15283060442293791265e+25) (37, 3.96062828980952240855e+25) (14, -1.06827409270390210379e+26) (51, -1.07376348305245693027e+26) (128, -8.11460216022635687507e+25) (16, -8.41914085306585136518e+25) (43, -1.09698750560209390822e+26) (101, -1.09689298502128343533e+26) (34, -1.50757964707720841375e+25) (3, -7.81395631057332297500e+25) (142, -1.24616404431118209294e+26) (36, -7.77589984093676216233e+25) (27, -1.10126418923372330015e+26) (85, -2.00835466618368089852e+25) (122, -1.24616404431118209294e+26) (71, -1.34664451943779860543e+25) (49, -9.19532143075317533869e+25) (17, -2.31818241012477222663e+25) (26, -8.29505696892738342285e-02) (57, -1.99445741339416337580e+25) (25, 1.80786152623472591933e+25) (53, -2.66239198868188126920e+25) (94, -5.20550794899463653564e-02) (135, -2.38418051809765508136e+25) (33, 1.58784998150030974161e+25) (145, -5.37740233091888245742e+24) (20, -1.48081951393434215593e+25) (21, 7.83610249299470568758e+24) (63, -1.71637128384745149531e+25) (111, 1.18844803523830135076e+24) (117, 2.41312883950270816033e+25) (137, 3.77803904416789250630e+25) (101, 1.80461801020052605942e+25) (25, 2.84019042384592281325e+25) (110, 2.35985693025095165306e+25) (19, 2.35985693025095165306e+25) (76, 2.13186113441093383556e+25) (143, 2.34726111957968712389e+25) (52, 2.77182774382613770367e+25) (130, 3.77803904416789250630e+25) (127, 2.69136666199244993483e+25) (11, 2.20840361595628607683e+25) (66, -1.42545998096466064453e-02) (123, -9.42089036107063293457e-02) (53, -2.56436914205551147461e-02) (136, 2.35985693025095165306e+25) (1, 2.82365605235099792480e-02) (2, -6.44465014338493347168e-02) (112, -1.55025481494390628575e+25) (71, -2.76049089965550599731e+25) (104, 3.11802454622869409864e+24) (75, -3.06983973917899985760e+25) (28, 1.60933549080290475272e+25) (4, -2.24740664241717853574e+25) (132, 1.87347032393208979165e+25) (82, 2.91501113643919445328e+24) (45, 4.21776880842875168463e+24) (128, -2.66772700544616987089e+25) (38, 1.63392607260391801283e+25) (139, -3.32606031970274064413e+25) (133, 2.89041009201754094604e+25) (64, 2.34919426714605223296e+25) (109, 2.07938201029983564737e+25) (69, 2.33352898854736773723e+25) (115, 3.77803904416789250630e+25) (114, 3.77803904416789250630e+25) (100, 2.19231677100048830987e+25) (3, 1.78982353035842173230e+25) (134, 1.54082200208097067055e+25) (135, 1.69550973736220849257e+25) (65, 2.86033617905005675760e+25) (124, 2.82004466864176825306e+25) (44, -2.53004126926764598656e+25) (39, -2.02775341182958863835e+25) (37, -1.90186427276235097516e+25) (40, -9.48341219835126914587e+24) (27, -2.41254774512272124412e+25) (72, -2.01329780803354483449e+25) (122, -1.59491035191174969206e+25) (125, -3.77803904416789250630e+25) (41, -3.67881588995302057050e+25) (90, 1.20074215956185874432e+25) (22, -3.77803904416789250630e+25) (108, -3.77803904416789250630e+25) (105, -1.59491035191174969206e+25) (142, 1.20074215956185874432e+25) (32, -3.67881588995302057050e+25) (60, -3.77803904416789250630e+25) (68, 2.47170079844349919248e+25) (26, 1.20074215956185874432e+25) (96, -3.23873857036798293285e+25) (93, -3.25537534569618712413e+25) (129, -2.46014178200541372015e+25) (7, -2.55246712912864036321e+25) (34, -3.32577380691841114335e+25) (17, -3.32548453650083533113e+25) (49, -4.57066093797101539007e+24) (8, -2.36899044908909174026e+25) (102, -3.77803904416789250630e+25) (107, -2.35745298298831907985e+25) (50, -3.33874338120293643788e+25) (79, -6.08888173474509285124e+24) (35, -3.77803904416789250630e+25) (95, -4.08274958514498902897e+24) (62, -2.78777995986185440450e+25) (47, -7.02815932486508689647e+24) (55, 4.15666326880455017090e-02) (67, -6.04666100167211995680e+24) (116, 5.48103143280654003523e+24) (120, -8.07179976552373856869e+24) (5, -8.85001942515373229980e-02) (59, -7.22830055959648659938e+24) (131, 4.81400659768346103146e+24) (145, -1.51669595236972944519e+25) (12, -4.17675139280741717812e+25) (42, 2.21026934200807969060e+25) (98, -4.84114074988847878751e+25) (124, 3.35248967852112175799e+24) (34, 6.80641920988421269383e+25) (122, 1.06562647360374679355e+26) (96, 5.09007609252471477423e+25) (45, 8.01099293813901042385e+25) (92, 6.65617690357883725005e+25) (130, 6.65617690357883725005e+25) (104, 6.01309402118260113979e+25) (46, 6.62065489269481097554e+25) (123, 7.81817123954157216701e+25) (24, 1.06562647360374679355e+26) (25, 7.59122318472359891761e+25) (16, 6.22890048967495291555e+25) (5, -6.61326199769973754883e-02) (74, 3.99388149380683898926e-02) (29, 2.35945358872413635254e-02) (135, 6.65617690357883725005e+25) (67, -7.93323069810867309570e-02) (30, -2.14435607194900512695e-02) (60, -4.37258189446874181120e+25) (4, -7.78616879194574187303e+25) (22, 8.79498169836789086500e+24) (44, -8.65872039554925984618e+25) (65, 4.53925212771206621519e+25) (102, -6.33899995242731625094e+25) (105, 5.28424328776338689397e+25) (121, 8.22255280901014260443e+24) (97, 1.18964325406847889404e+25) (133, -7.52452822611994728328e+25) (18, 4.60862989786207513467e+25) (93, -9.38143606734169213302e+25) (39, 8.15264358688636685695e+25) (126, 6.62611684285227627394e+25) (100, 5.86505847106413563447e+25) (41, 6.58185793873399641853e+25) (7, 1.06562647360374679355e+26) (76, 1.06562647360374679355e+26) (125, 6.18362135836030825681e+25) (83, 5.04836785020995362368e+25) (116, 4.34601708002513837779e+25) (36, 4.78229808150324409029e+25) (62, 8.06781491693057796599e+25) (20, 7.95417095934733293055e+25) (70, -7.13616830312470974803e+25) (139, -5.71941972645481525344e+25) (78, -5.36435211900758986704e+25) (61, -2.67485649548198033333e+25) (140, -6.80475179255005051292e+25) (138, -5.67864629013283469556e+25) (56, -4.49857197375484296933e+25) (28, -1.06562647360374679355e+26) (1, -1.03764006129892618207e+26) (141, 3.38684748529552740885e+25) (21, -1.06562647360374679355e+26) (64, -1.06562647360374679355e+26) (86, -4.49857197375484296933e+25) (59, 3.38684748529552740885e+25) (37, -1.03764006129892618207e+26) (32, -1.06562647360374679355e+26) (69, 6.97170464368202888050e+25) (23, 3.38684748529552740885e+25) (15, -9.13508243882160406051e+25) (144, -9.18202268147825300063e+25) (118, -6.93900633464339443923e+25) (99, -7.19942767070582071372e+25) (82, -9.38061681718855006054e+25) (33, -9.37980864813477494040e+25) (107, -1.28915997137851737975e+25) (31, -6.68190414508619561844e+25) (77, -1.06562647360374679355e+26) (134, -6.64936172321863801053e+25) (48, -9.41718883980830232889e+25) (87, -1.71738808333823413982e+25) (131, -1.06562647360374679355e+26) (119, -1.15154417908941816112e+25) (35, -7.86315065528496349596e+25) (111, -1.98232661915875406984e+25) (66, -1.22155994176864624023e-02) (115, -1.70550222490696120743e+25) (73, 1.54594670063786794827e+25) (106, -2.27667848179682038660e+25) (94, 5.51009252667427062988e-02) (14, -2.03877309572676046973e+25) (101, 1.35781614041190022460e+25) (145, -9.20134737156737744660e+24) (36, -2.53387418816453908470e+25) (45, 1.34086932086592001876e+25) (89, -2.93693417930528860007e+25) (120, 2.03367286412209744668e+24) (69, 4.12918291659477871493e+25) (64, 6.46472638504257000927e+25) (93, 3.08794240913827843036e+25) (71, 4.85994410354385162485e+25) (138, 4.03802846650327304682e+25) (112, 4.03802846650327304682e+25) (81, 3.64789604758470844870e+25) (42, 4.01647661721089231710e+25) (3, 4.74296661886803266272e+25) (123, 6.46472638504257000927e+25) (9, 4.60528710488040798704e+25) (50, 3.77886061016168612799e+25) (106, -4.57440204918384552002e-02) (124, -9.83148664236068725586e-02) (15, -1.34316831827163696289e-02) (70, 4.03802846650327304682e+25) (126, -5.75084686279296875000e-02) (60, -6.80202692747116088867e-02) (102, -2.65268425226390854561e+25) (59, -4.72356241055338235481e+25) (111, 5.33541494287489560058e+24) (48, -5.25290190587961645633e+25) (135, 2.75377318101213186118e+25) (17, -3.84561610159196539579e+25) (26, 3.20573969332721971804e+25) (8, 4.98806851122717765979e+24) (22, 7.21708967414311956775e+24) (29, -4.56483143636169643996e+25) (62, 2.79586040497063565009e+25) (73, -5.69132732494764322775e+25) (96, 4.94587655827471098907e+25) (11, 4.01979001081442444562e+25) (38, 3.55810249705166574935e+25) (94, 3.99296260023842319735e+25) (105, 6.46472638504257000927e+25) (77, 6.46472638504257000927e+25) (47, 3.75134832632663846557e+25) (107, 3.06263257312948182655e+25) (1, 2.63655513159311798368e+25) (49, 2.90123360550400687163e+25) (80, 4.89441677438818274456e+25) (20, 4.82547143269946724754e+25) (12, -4.32923331228645887752e+25) (4, -3.46975133930889663595e+25) (56, -3.25434050492075298574e+25) (43, -1.62273522677187112977e+25) (33, -4.12818098395229545436e+25) (75, -3.44501314955723044720e+25) (78, -2.72910399675258330321e+25) (76, -6.46472638504257000927e+25) (68, -6.29494318812020131559e+25) (84, 2.05464251977090042251e+25) (30, -6.46472638504257000927e+25) (108, -6.46472638504257000927e+25) (127, -2.72910399675258330321e+25) (37, 2.05464251977090042251e+25) (53, -6.29494318812020131559e+25) (6, -6.46472638504257000927e+25) (39, 4.22942898810396721304e+25) (115, 2.05464251977090042251e+25) (31, -5.54189886238856303555e+25) (52, -5.57037037252681122238e+25) (143, -4.20962380304938317791e+25) (125, -4.36760622023859523321e+25) (140, -5.69083879658420025027e+25) (72, -5.69034568495161858327e+25) (118, -7.82094793827110280285e+24) (132, -4.05365425298195563497e+25) (91, -6.46472638504257000927e+25) (66, -4.03391139677547277121e+25) (136, -5.71303089401421018882e+25) (44, -1.04188827863894035582e+25) (61, -6.46472638504257000927e+25) (19, -6.98610658955589267856e+24) (32, -4.77025910839838657751e+25) (134, -1.20261440513349166500e+25) (41, -4.33169864118099212646e-02) (74, -1.03467196078131102771e+25) (119, 9.37876738493446973135e+24) (13, -1.38118863805080673075e+25) (142, -3.03388088941574096680e-02) (2, -1.23685620952286417587e+25) (116, 8.23739682147932047409e+24) (145, -1.07530668517350642203e+25) (121, -2.96119377227552142697e+25) (30, 1.56699736731774289235e+25) (7, -3.43222613218725540617e+25) (66, 2.37665377497490403623e+24) (117, 4.82554132637863600990e+25) (102, 7.55495716665321738186e+25) (99, 3.60870391512726703325e+25) (140, 5.67954029835523450733e+25) (29, 4.71901192730904248839e+25) (75, 4.71901192730904248839e+25) (97, 4.26308726470793413662e+25) (45, 4.69382753445450533715e+25) (128, 5.54283762630817721960e+25) (129, 7.55495716665321738186e+25) (108, 5.38193886968751114294e+25) (24, 4.41613031948253867425e+25) (6, -2.58781686425209045410e-02) (115, -8.18543285131454467773e-02) (0, -4.90001924335956573486e-02) (126, 4.71901192730904248839e+25) (122, 1.74202546477317810059e-02) (123, 5.89004904031753540039e-03) (119, -3.10003465798871495014e+25) (9, -5.52015635302619171971e+25) (42, 6.23525242874982335670e+24) (95, -6.13876524530880004101e+25) (124, 3.21818056691325362598e+25) (38, -4.49415604820016604308e+25) (57, 3.74636432932881109740e+25) (87, 5.82938630701803322632e+24) (83, 8.43426945105333757097e+24) (134, -5.33465671136133913353e+25) (106, 3.26737177680303373471e+25) (91, -6.65113347691132228521e+25) (69, 5.77996744485995269849e+25) (86, 4.69770187715876392125e+25) (8, 4.15815368136112648812e+25) (111, 4.66634230213475762533e+25) (59, 7.55495716665321738186e+25) (96, 7.55495716665321738186e+25) (100, 4.38399053955196581566e+25) (31, 3.57912689307831498200e+25) (80, 3.08119446621626912651e+25) (116, 3.39050376166245593178e+25) (25, 5.71982598724925010970e+25) (15, 5.63925460946112355668e+25) (78, -5.05932646423036370826e+25) (56, -4.05489789235609085988e+25) (113, -3.80316152444533894682e+25) (51, -1.89639490213216809732e+25) (125, -4.82436810924957079081e+25) (93, -4.02599264241890653939e+25) (32, -3.18934470743742635154e+25) (28, -7.55495716665321738186e+25) (58, -7.35654176347856998823e+25) (23, 2.40114694637292668227e+25) (73, -7.55495716665321738186e+25) (33, -7.55495716665321738186e+25) (64, -3.18934470743742635154e+25) (79, 2.40114694637292668227e+25) (52, -7.35654176347856998823e+25) (101, -7.55495716665321738186e+25) (104, 4.94269709484751319781e+25) (18, 2.40114694637292668227e+25) (94, -6.47649619445790920535e+25) (132, -6.50977204047822765162e+25) (46, -4.91954120653865228939e+25) (135, -5.10416798366084817559e+25) (133, -6.65056162344184283021e+25) (54, -6.64998643192229572431e+25) (82, -9.13988328641707250391e+24) (12, -4.73727239711163901941e+25) (49, -7.55495716665321738186e+25) (139, -4.71420026874508876259e+25) (107, -6.67649315325238739940e+25) (118, -1.21758922647833766590e+25) (142, -7.55495716665321738186e+25) (5, -8.16421538321709340924e+24) (36, -5.57472970830810167189e+25) (63, -1.40542269604426395576e+25) (136, -8.18825587630271911621e-02) (41, -1.20915930040345615915e+25) (47, 1.09603665562632350209e+25) (14, -1.61410743178280370323e+25) (44, -2.16072052717208862305e-03) (92, -1.44543660096390450685e+25) (137, 9.62651428128257017800e+24) (145, -1.31180555942190730308e+25) (27, -3.61249959285947482348e+25) (73, 1.91166828774316001911e+25) (108, -4.18713396931324226642e+25) (63, 2.89952553934886831705e+24) (23, 5.88691479605839514388e+25) (49, 9.21666464711623593049e+25) (101, 4.40243797183314619405e+25) (53, 6.92875311359806867358e+25) (138, 5.75695908026865133279e+25) (31, 5.75695908026865133279e+25) (140, 5.20075367206470123614e+25) (92, 5.72623733738013821994e+25) (121, 6.76198524975317365796e+25) (125, 9.21666464711623593049e+25) (98, 6.56569611248555852426e+25) (112, 5.38742504519533618665e+25) (3, 1.00298374891281127930e-02) (134, 9.45852175354957580566e-02) (41, -2.64330357313156127930e-02) (64, 5.75695908026865133279e+25) (102, 3.80183979868888854980e-02) (47, -3.31873595714569091797e-02) (8, -3.78187175021636272385e+25) (42, -6.73430484972224118700e+25) (94, 7.60682702748372379999e+24) (38, -7.48897827909970231778e+25) (118, 3.92602057748359687313e+25) (4, -5.48264526751891662947e+25) (52, 4.57036993232022688865e+25) (91, 7.11174793545117906397e+24) (143, 1.02893880624572455694e+25) (119, -6.50800789467264879302e+25) (115, 3.98603611359780355713e+25) (21, -8.11405381221864273630e+25) (39, 7.05127033122922091145e+25) (14, 5.73096770301624548086e+25) (77, 5.07273322352021254177e+25) (44, 5.69268792646766198228e+25) (97, 9.21666464711623593049e+25) (71, 9.21666464711623593049e+25) (57, 5.34825084384198606297e+25) (61, 4.36636261891905136687e+25) (11, 3.75890159057061965799e+25) (86, 4.13623683400066698387e+25) (20, 6.97789896997862257312e+25) (123, 6.87960725721756459566e+25) (122, -6.17211570418159088682e+25) (34, -4.94676178706916729170e+25) (128, -4.63966032213868441240e+25) (103, -2.31349832656136077302e+25) (35, -5.88547418302633721631e+25) (75, -4.91150085915760304734e+25) (37, -3.89083646554712905267e+25) (114, -9.21666464711623593049e+25) (22, -8.97460875025016319220e+25) (28, 2.92929545533742080359e+25) (117, -9.21666464711623593049e+25) (104, -9.21666464711623593049e+25) (106, -3.89083646554712905267e+25) (107, 2.92929545533742080359e+25) (90, -8.97460875025016319220e+25) (10, -9.21666464711623593049e+25) (45, 6.02986006790731937738e+25) (80, 2.92929545533742080359e+25) (133, -7.90098527367244220989e+25) (74, -7.94158479925566367303e+25) (46, -6.00158194394229303170e+25) (136, -6.22682100075073994008e+25) (131, -8.11335041271757419168e+25) (83, -8.11265110393506164575e+25) (99, -1.11500848069793230996e+25) (40, -5.77922233440955809598e+25) (0, -9.21666464711623593049e+25) (65, -5.75107594390286293522e+25) (32, -8.14498127718981953263e+25) (93, -1.48538259967255354257e+25) (58, -9.21666464711623593049e+25) (50, -9.95980538508102753845e+24) (26, -6.80088549576817483018e+25) (9, -1.71453260389897605764e+25) (110, 4.28671911358833312988e-02) (100, -1.47510543528547982592e+25) (141, 1.33709763420171251304e+25) (2, -1.96911234839943013634e+25) (96, -8.62241834402084350586e-02) (17, -1.76334650624204617401e+25) (95, 1.17437933661677779660e+25) (145, -9.37324887571599085430e+24) (0, -2.58122167508532088359e+25) (46, 1.36592950169052977111e+25) (64, -2.99181346440211454587e+25) (68, 2.07171180907647701982e+24) (75, 4.20634272573689728147e+25) (126, 6.58553033496222283648e+25) (5, 3.14564571559452723443e+25) (131, 4.95076044612268628357e+25) (115, 4.11348762051063431572e+25) (94, 4.11348762051063431572e+25) (95, 3.71606472624374333949e+25) (103, 4.09153345530682805322e+25) (121, 4.83159705817734749178e+25) (84, 6.58553033496222283648e+25) (43, 4.69134465603142714634e+25) (14, 3.84947032436926340284e+25) (80, -3.74500080943107604980e-02) (1, 6.60044029355049133301e-02) (142, -8.45870748162269592285e-02) (137, 4.11348762051063431572e+25) (106, -5.64209632575511932373e-02) (102, -7.42990523576736450195e-02) (85, -2.70225113414841943164e+25) (63, -4.81182849898528985726e+25) (7, 5.43514351816001502314e+24) (135, -5.35106040283845593357e+25) (78, 2.80522931239887204411e+25) (36, -3.91747860229545524241e+25) (12, 3.26563961337313550202e+25) (120, 5.08131617358031747233e+24) (92, 7.35192523118453582306e+24) (61, -4.65013226374442792885e+25) (52, 2.84810449684937978528e+25) (2, -5.79767905749987533280e+25) (30, 5.03829956202709681586e+25) (130, 4.09490878622444774826e+25) (45, 3.62458983670905675648e+25) (35, 4.06757271798697019593e+25) (113, 6.58553033496222283648e+25) (71, 6.58553033496222283648e+25) (119, 3.82144990311322367463e+25) (66, 3.11986512271790294360e+25) (72, 2.68582285986826872831e+25) (136, 2.95544497667861437743e+25) (32, 4.98587736842736724880e+25) (10, 4.91564352381807919177e+25) (111, -4.41013060207750807007e+25) (141, -3.53458756909739341251e+25) (41, -3.31515215782531549679e+25) (76, -1.65305727995255031700e+25) (91, -4.20531969788096736783e+25) (34, -3.50938607021807233757e+25) (134, -2.78010195483677922270e+25) (100, -6.58553033496222283648e+25) (125, -6.41257479677071070624e+25) (114, 2.09304177512964670725e+25) (4, -6.58553033496222283648e+25) (98, -6.58553033496222283648e+25) (143, -2.78010195483677922270e+25) (19, 2.09304177512964670725e+25) (116, -6.41257479677071070624e+25) (99, -6.58553033496222283648e+25) (28, 4.30847005470048151772e+25) (20, 2.09304177512964670725e+25) (132, -5.64545419671103841512e+25) (122, -5.67445899044519842551e+25) (144, -4.28828526790301783100e+25) (105, -4.44922105894644493708e+25) (58, -5.79718105367512718560e+25) (140, -5.79667919769696862502e+25) (24, -7.96707381980519483415e+24) (26, -4.12940204457304796221e+25) (90, -6.58553033496222283648e+25) (6, -4.10929016573876302124e+25) (123, -5.81978759179568149472e+25) (118, -1.06135685592080436114e+25) (57, -6.58553033496222283648e+25) (67, -7.11664296060950752212e+24) (77, -4.85939836357406613056e+25) (18, -1.22508780468066156471e+25) (49, 7.13062956929206848145e-02) (79, -1.05400900358768701232e+25) (82, 9.55401717195292282559e+24) (38, -1.40699731358141522075e+25) (33, 4.91869524121284484863e-02) (40, -1.25996849951147029556e+25) (117, 8.39132434236678574231e+24) (145, -1.32116837510089372063e+25) (1, -3.63825142805680302515e+25) (118, 1.92528330737160322265e+25) (125, -4.21698254708581888353e+25) (130, 2.92008116587955085745e+24) (138, 5.92887356438003584703e+25) (92, 9.28235146438224582237e+25) (113, 4.43381279797492837379e+25) (6, 6.97813184065748821082e+25) (20, 5.79798722688915240229e+25) (5, 5.79798722688915240229e+25) (8, 5.23781754656108381985e+25) (110, 5.76704395075067808852e+25) (58, 6.81017666564794957357e+25) (96, 9.28235146438224582237e+25) (86, 6.61248899141456598149e+25) (129, 5.42584266770545605702e+25) (71, -2.19798535108566284180e-02) (70, 5.53688332438468933105e-02) (42, -4.64654080569744110107e-02) (85, 5.79798722688915240229e+25) (131, -8.73372778296470642090e-02) (45, 6.16516992449760437012e-02) (15, -3.80883774354057330017e+25) (136, -6.78230650699170882393e+25) (101, 7.66092534888036445035e+24) (53, -7.54235552196744650047e+25) (35, 3.95400448612090958305e+25) (2, -5.52171684938963404729e+25) (3, 4.60295409779272444050e+25) (73, 7.16224820007911148225e+24) (62, 1.03627484539235714518e+25) (65, -6.55439479279368355793e+25) (114, 4.01444046603197974336e+25) (12, -8.17187950512790956178e+25) (88, 7.10152233782851179213e+25) (51, 5.77180815102091500118e+25) (133, 5.10888651773679321292e+25) (112, 5.73327725093394313873e+25) (50, 9.28235146438224582237e+25) (59, 9.28235146438224582237e+25) (33, 5.38636289164095335548e+25) (106, 4.39747555185932073718e+25) (134, 3.78568808542329514775e+25) (93, 4.16572466297612621589e+25) (94, 7.02762827008270174708e+25) (91, 6.92863541123240008761e+25) (81, -6.21611010563998224231e+25) (109, -4.98202468273995433451e+25) (80, -4.67273042102383960528e+25) (64, -2.32999247670758476538e+25) (99, -5.92743004472245311924e+25) (72, -4.94651037940600754101e+25) (36, -3.91856610624872360234e+25) (76, -9.28235146438224582237e+25) (67, -9.03856956374231322083e+25) (123, 2.95015592888966912126e+25) (14, -9.28235146438224582237e+25) (77, -9.28235146438224582237e+25) (63, -3.91856610624872360234e+25) (28, 2.95015592888966912126e+25) (27, -9.03856956374231322083e+25) (97, -9.28235146438224582237e+25) (30, 6.07281091233642722162e+25) (16, 2.95015592888966912126e+25) (135, -7.95731002145013811254e+25) (41, -7.99819337054755575657e+25) (116, -6.04436338795178414100e+25) (90, -6.27120448520003980089e+25) (139, -8.17117274129762512368e+25) (124, -8.17046562190997288879e+25) (102, -1.12296429403756276094e+25) (132, -5.82041743826076539919e+25) (47, -9.28235146438224582237e+25) (48, -5.79207066524859059688e+25) (140, -8.20303260050808912468e+25) (37, -1.49597702204880291354e+25) (13, -9.28235146438224582237e+25) (128, -1.00308685705552992445e+25) (108, -6.84935779031043161876e+25) (10, -1.72675783151026558604e+25) (107, -6.83076828718185424805e-02) (52, -1.48561934153810000195e+25) (117, 1.34663343100934612886e+25) (75, -1.98315789829334827281e+25) (127, -3.92419397830963134766e-02) (38, -1.77592192262482108717e+25) (7, 1.18275417965064574195e+25) (145, -7.27094942765477607663e+24) (33, -2.00227494694380766484e+25) (52, 1.05955195139494786661e+25) (56, -2.32077245787584014099e+25) (3, 1.60698516987029877686e+24) (101, 3.26289149647282917154e+25) (64, 5.10844051442530224230e+25) (85, 2.44010156639966198214e+25) (134, 3.84033889911769272209e+25) (16, 3.19085074690357018954e+25) (97, 3.19085074690357018954e+25) (75, 2.88256934937223554904e+25) (123, 3.17382343939917069020e+25) (72, 3.74790664002953114770e+25) (80, 5.10844051442530224230e+25) (65, 3.63911112160120762700e+25) (78, 2.98606102700044076408e+25) (116, 7.30502083897590637207e-02) (84, -7.93683230876922607422e-02) (82, 7.00467899441719055176e-02) (47, 3.19085074690357018954e+25) (40, 8.34684893488883972168e-02) (76, -5.89626245200634002686e-02) (29, -2.09615022761750964428e+25) (136, -3.73256830188923993813e+25) (142, 4.21612210157885577809e+24) (44, -4.15085216915747740519e+25) (114, 2.17604501371911065158e+25) (67, -3.03882034850942565325e+25) (0, 2.53318733257813121659e+25) (37, 3.94171441338058016817e+24) (17, 5.70313168097600732974e+24) (131, -3.60713756103614119878e+25) (143, 2.20931232245709114662e+25) (39, -4.49730394462020078110e+25) (69, 3.90824483866052286627e+25) (125, 3.17644591485924594732e+25) (34, 2.81162883009051304405e+25) (128, 3.15524640228101292420e+25) (100, 5.10844051442530224230e+25) (49, 5.10844051442530224230e+25) (106, 2.96432653363094010567e+25) (104, 2.42009932652153201094e+25) (122, 2.08341900995545584223e+25) (77, 2.29256139549065855170e+25) (112, 3.86757834074958889998e+25) (68, 3.81309945748575488301e+25) (30, -3.42096880538870391180e+25) (28, -2.74180290525972842760e+25) (141, -2.57158672435025162409e+25) (138, -1.28228450211428960599e+25) (55, -3.26209994279251430385e+25) (127, -2.72226539177327976755e+25) (87, -2.15653737767114488079e+25) (57, -5.10844051442530224230e+25) (45, -4.97427772032955590357e+25) (13, 1.62357914709828532143e+25) (86, -5.10844051442530224230e+25) (5, -5.10844051442530224230e+25) (2, -2.15653737767114488079e+25) (79, 1.62357914709828532143e+25) (66, -4.97427772032955590357e+25) (121, -5.10844051442530224230e+25) (98, 3.34209866715104070190e+25) (129, 1.62357914709828532143e+25) (103, -4.37921805481630489505e+25) (115, -4.40171916991234147741e+25) (93, -3.32644706481975051776e+25) (35, -3.45128541499247453631e+25) (36, -4.49691806910154541357e+25) (10, -4.49652950750892235245e+25) (43, -6.18013827034237513394e+24) (91, -3.20320514491234833117e+25) (26, -5.10844051442530224230e+25) (110, -3.18760466413818142125e+25) (21, -4.51444928436385292170e+25) (51, -8.23294684793147094362e+24) (62, -5.10844051442530224230e+25) (46, -5.52038093078727858586e+24) (48, -3.76946993979117254465e+25) (73, -9.50301507015015013548e+24) (117, -1.74655914306640625000e-02) (23, -8.17592145735465013818e+24) (9, 7.41104469160453230245e+24) (71, -1.09140557825837980252e+25) (89, 6.23690858483314514160e-02) (7, -9.77356488192885657908e+24) (18, 6.50911216802372526277e+24) (145, -1.58005235333986623947e+25) (7, -4.35120734545244058676e+25) (10, 2.30258067141075812284e+25) (25, -5.04334721605543831871e+25) (43, 3.49244587560355977862e+24) (62, 7.09070738016747132656e+25) (96, 1.11013500305530521391e+26) (99, 5.30267493703759048034e+25) (50, 8.34559069076172637649e+25) (114, 6.93418433374509584173e+25) (116, 6.93418433374509584173e+25) (23, 6.26424185633050930509e+25) (139, 6.89717784875537658303e+25) (36, 8.14471537386316963848e+25) (122, 1.11013500305530521391e+26) (47, 7.90828839769094654830e+25) (106, 6.48908218788434234520e+25) (89, -5.34126535058021545410e-02) (40, -5.36707304418087005615e-02) (6, -3.47885712981224060059e-02) (26, 6.93418433374509584173e+25) (127, -3.93632464110851287842e-02) (81, -5.42466826736927032471e-02) (97, -4.55521942688252320704e+25) (69, -8.11138055943545284838e+25) (119, 9.16227329515532996470e+24) (45, -9.02037519280894233532e+25) (104, 4.72884286447155184402e+25) (34, -6.60376441644642630495e+25) (103, 5.50495484610221523820e+25) (53, 8.56590360263617680297e+24) (8, 1.23933468568476997669e+25) (48, -7.83881003621618049027e+25) (95, 4.80111917819070569943e+25) (20, -9.77327117553101291420e+25) (101, 8.49315653251549921563e+25) (111, 6.90286932064181001692e+25) (63, 6.11003015761760898557e+25) (30, 6.85677350989489750965e+25) (76, 1.11013500305530521391e+26) (140, 1.11013500305530521391e+26) (13, 6.44189251718750753239e+25) (107, 5.25922123008549250946e+25) (105, 4.52753969509912103669e+25) (24, 4.98204630577808278804e+25) (54, 8.40478631933281517563e+25) (21, 8.28639506219044000886e+25) (84, -7.43423127234991726044e+25) (46, -5.95830953303795307014e+25) (72, -5.58840901193051497604e+25) (143, -2.78658099104038647297e+25) (31, -7.08897557510224790893e+25) (138, -5.91583369986446077031e+25) (2, -4.68646631984343919268e+25) (92, -1.11013500305530521391e+26) (44, -1.08097961202019762593e+26) (98, 3.52829658750684857085e+25) (67, -1.11013500305530521391e+26) (59, -1.11013500305530521391e+26) (37, -4.68646631984343919268e+25) (108, 3.52829658750684857085e+25) (85, -1.08097961202019762593e+26) (136, -1.11013500305530521391e+26) (110, 7.26288239863843257613e+25) (39, 3.52829658750684857085e+25) (3, -9.51663805015999809659e+25) (12, -9.56553654398354674344e+25) (17, -7.22883443787159797812e+25) (80, -7.50013087156898334150e+25) (134, -9.77242106672467963585e+25) (52, -9.77157762490211120783e+25) (86, -1.34301086914197428634e+25) (75, -6.96099583008221061248e+25) (73, -1.11013500305530521391e+26) (68, -6.92709396943596310390e+25) (70, -9.81052200203151618301e+25) (118, -1.78912671780031474193e+25) (126, -1.11013500305530521391e+26) (65, -1.19964793856567688812e+25) (87, -8.19157605060187377327e+25) (18, -2.06513057706103116304e+25) (22, 4.43772599101066589355e-02) (129, -1.77674165939999053521e+25) (35, 1.61052215095441981325e+25) (102, -2.37177796582666149162e+25) (90, -2.63707637786865234375e-02) (64, -2.12393393602116198009e+25) (133, 1.41453128595195608758e+25) (145, -1.37906895510384277077e+25) (55, -3.79772648180794653671e+25) (57, 2.00968400090225524185e+25) (61, -4.40182473453509336535e+25) (132, 3.04816008556967229181e+24) (11, 6.18875305811054060655e+25) (103, 9.68923464145290592445e+25) (29, 4.62816275949256960104e+25) (115, 7.28401385717896747061e+25) (25, 6.05213878136316816743e+25) (39, 6.05213878136316816743e+25) (116, 5.46741436217058336231e+25) (118, 6.01984001404288886469e+25) (32, 7.10868809831247062761e+25) (58, 9.68923464145290592445e+25) (10, 6.90233563117167426394e+25) (53, 5.66366811785387041830e+25) (110, -8.52977484464645385742e-03) (98, 1.37225985527038574219e-02) (50, 5.23647740483283996582e-02) (41, 6.05213878136316816743e+25) (139, 8.57497677206993103027e-02) (130, 1.68852508068084716797e-03) (15, -3.97578870847987527388e+25) (112, -7.07959648710754139080e+25) (94, 7.99676265870939405471e+24) (143, -7.87296555247381993363e+25) (73, 4.12731549908753095800e+25) (91, -5.76375336815174420173e+25) (51, 4.80470587547563295695e+25) (141, 7.47627802178892906417e+24) (134, 1.08168470914189748915e+25) (34, -6.84169509874620225437e+25) (79, 4.19040016967213029639e+25) (70, -8.53008220754406760975e+25) (59, 7.41280724707135424697e+25) (68, 6.02480562116808303559e+25) (36, 5.33282772680840259180e+25) (8, 5.98457163739436550151e+25) (99, 9.68923464145290592445e+25) (7, 9.68923464145290592445e+25) (138, 5.62246946841109988754e+25) (46, 4.59023493270348777914e+25) (28, 3.95163127993893622246e+25) (125, 4.34831535691654320263e+25) (18, 7.33568022446768011482e+25) (142, 7.23234748989022476163e+25) (88, -6.48858269164857326484e+25) (117, -5.20040177905533602192e+25) (137, -4.87755338858814978161e+25) (106, -2.43212527882979022859e+25) (97, -6.18724346501793671367e+25) (37, -5.16332768478616039740e+25) (17, -4.09033980451614450904e+25) (23, -9.68923464145290592445e+25) (30, -9.43476700545434476735e+25) (22, 3.07948806453892833178e+25) (65, -9.68923464145290592445e+25) (72, -9.68923464145290592445e+25) (13, -4.09033980451614450904e+25) (101, 3.07948806453892833178e+25) (62, -9.43476700545434476735e+25) (123, -9.68923464145290592445e+25) (140, 6.33903116355500012711e+25) (16, 3.07948806453892833178e+25) (52, -8.30609912628137717525e+25) (1, -8.34877784690558333176e+25) (136, -6.30931278922795822822e+25) (100, -6.54609784238419181369e+25) (0, -8.52934613176822438277e+25) (90, -8.52861046922226056561e+25) (84, -1.17218050349120484614e+25) (128, -6.07554633494103167756e+25) (12, -9.68923464145290592445e+25) (82, -6.04595613317204173516e+25) (127, -8.56260230008529595295e+25) (60, -1.56155265298157402021e+25) (121, -9.68923464145290592445e+25) (9, -1.04705461017879953455e+25) (107, -7.14958969842538311015e+25) (49, -1.80244777603416463340e+25) (133, -5.47556728124618530273e-02) (92, -1.55074331488033576478e+25) (86, 1.40566508654044794910e+25) (24, -2.07008621925956323545e+25) (89, 9.55299064517021179199e-02) (4, -1.85376778010903551704e+25) (124, 1.23460168712235164421e+25) (145, -1.34432835611383535396e+25) (6, -3.70205434548141457020e+25) (8, 1.95904814226159061980e+25) (31, -4.29093140498416557034e+25) (32, 2.97135463210838864691e+24) (60, 6.03284329282698581419e+25) (114, 9.44513844966588365668e+25) (135, 4.51157041786804722729e+25) (70, 7.10051297242464780582e+25) (73, 5.89965969323749497058e+25) (101, 5.89965969323749497058e+25) (23, 5.32966826215941426244e+25) (107, 5.86817766541458740703e+25) (142, 6.92960752145341324974e+25) (39, 9.44513844966588365668e+25) (79, 6.72845257985275764796e+25) (27, 5.52097012598112574264e+25) (91, 5.71042969822883605957e-02) (124, 6.05714991688728332520e-02) (11, 8.72213914990425109863e-02) (139, 5.89965969323749497058e+25) (132, 7.62497261166572570801e-02) (2, -2.28385105729103088379e-02) (42, -3.87562010359994118591e+25) (96, -6.90124136491466833999e+25) (68, 7.79538854041216425237e+24) (51, -7.67462205365081316115e+25) (110, 4.02335584039361438212e+25) (113, -5.61855520866148100069e+25) (117, 4.68367683711933813023e+25) (72, 7.28809486106106904392e+24) (41, 1.05445844028218614229e+25) (111, -6.66933197265040228399e+25) (61, 4.08485915752391861296e+25) (97, -8.31520176884803133547e+25) (116, 7.22605798280992656248e+25) (28, 5.87302416425032279434e+25) (9, 5.19848777085247292986e+25) (55, 5.83380325339517973839e+25) (105, 9.44513844966588365668e+25) (5, 9.44513844966588365668e+25) (50, 5.48082570041659650946e+25) (17, 4.47459618857241334283e+25) (48, 3.85208806338348345102e+25) (19, 4.23877171909962860436e+25) (123, 7.15087601051732162527e+25) (47, 7.05014993433200576912e+25) (133, -6.32511778602308623296e+25) (103, -5.06938706709081312660e+25) (52, -4.75467547023573402538e+25) (37, -2.37084909968129615567e+25) (99, -6.03137286663043859696e+25) (33, -5.03325959128151365738e+25) (57, -3.98728736880507643411e+25) (108, -9.44513844966588365668e+25) (131, -9.19708101773943581778e+25) (89, 3.00190750485589757096e+25) (30, -9.44513844966588365668e+25) (87, -9.44513844966588365668e+25) (36, -3.98728736880507643411e+25) (15, 3.00190750485589757096e+25) (25, -9.19708101773943581778e+25) (64, -9.44513844966588365668e+25) (10, 6.17932731407826220818e+25) (67, 3.00190750485589757096e+25) (141, -8.09684823998141364070e+25) (77, -8.13845420091791084293e+25) (26, -6.15036091434016608931e+25) (115, -6.38117946823916106746e+25) (78, -8.31447882808441676696e+25) (138, -8.31376353220921579631e+25) (20, -1.14264595155026615499e+25) (54, -5.92248173320090460304e+25) (71, -9.44513844966588365668e+25) (35, -5.89363788853266956325e+25) (119, -8.34688883982761707092e+25) (127, -1.52219503520360010005e+25) (93, -9.44513844966588365668e+25) (43, -1.02066293701998260655e+25) (106, -6.96947511519677799780e+25) (58, -1.75701938995498300243e+25) (18, -5.97669035196304321289e-02) (126, -1.51165366812972370216e+25) (86, 1.37023811174679126905e+25) (13, -2.01791015498871012348e+25) (84, -1.55888497829437255859e-04) (81, -1.80704574566144808898e+25) (143, 1.20348599123331185199e+25) (145, -1.20579053537444807081e+25) (35, -3.32052372125580646448e+25) (66, 1.75715126899390365817e+25) (69, -3.84871519754114290711e+25) (109, 2.66507350898743490852e+24) (62, 5.41110398238927874739e+25) (142, 8.47172710944627395438e+25) (89, 4.04660678786039997876e+25) (68, 6.36873389866014813643e+25) (36, 5.29165353308241676772e+25) (39, 5.29165353308241676772e+25) (141, 4.78040239329126648109e+25) (90, 5.26341080119059986724e+25) (64, 6.21544140228439448496e+25) (14, 8.47172710944627395438e+25) (46, 6.03501859219994007694e+25) (100, 4.95201321065124473162e+25) (114, -6.06236122548580169678e-02) (30, 6.82534798979759216309e-02) (75, -5.93135394155979156494e-02) (111, 5.29165353308241676772e+25) (121, 5.17636910080909729004e-02) (99, -7.65386968851089477539e-03) (87, -3.47621840556467286463e+25) (123, -6.19001045398900934841e+25) (126, 6.99184134613398715577e+24) (54, -6.88368605565917435223e+25) (134, 3.60869425783045415030e+25) (61, -5.03950376046230369374e+25) (132, 4.20097346764123156104e+25) (77, 6.53667273077015780629e+24) (18, 9.45765419881327931005e+24) (116, -5.98200182627735596528e+25) (24, 3.66384756787198388842e+25) (78, -7.45822641109888728983e+25) (41, 6.48134436197623938710e+25) (140, 5.26775470887571608578e+25) (43, 4.66272630355931835914e+25) (65, 5.23259055514599663537e+25) (76, 8.47172710944627395438e+25) (130, 8.47172710944627395438e+25) (55, 4.91597019481853165264e+25) (104, 4.01344284853359535666e+25) (92, 3.45508252039034473032e+25) (20, 3.80193158769925530646e+25) (9, 6.41390862510389127545e+25) (56, 6.32355917221638266358e+25) (59, -5.67326030800804165504e+25) (57, -4.54694825975861703365e+25) (93, -4.26466300895677198694e+25) (58, -2.12651897366410884253e+25) (79, -5.40978862985020539645e+25) (3, -4.51452846884753801667e+25) (29, -3.57636530352500828747e+25) (48, -8.47172710944627395438e+25) (113, -8.24923414821888340850e+25) (110, 2.69252092648207968476e+25) (11, -8.47172710944627395438e+25) (80, -8.47172710944627395438e+25) (137, -3.57636530352500828747e+25) (102, 2.69252092648207968476e+25) (127, -8.24923414821888340850e+25) (112, -8.47172710944627395438e+25) (2, 5.54247828081875452837e+25) (32, 2.69252092648207968476e+25) (15, -7.26240182689022085672e+25) (125, -7.29971301342996145394e+25) (45, -5.51651702957469415663e+25) (122, -5.72354675068695322076e+25) (47, -7.45758339894765273827e+25) (73, -7.45693757337233482674e+25) (139, -1.02489639687701104406e+25) (143, -5.31212490315685406095e+25) (86, -8.47172710944627395438e+25) (101, -5.28625299252579961080e+25) (138, -7.48666433974637507841e+25) (95, -1.36534226978666058455e+25) (74, -8.47172710944627395438e+25) (17, -9.15493484079331818445e+24) (117, -6.25120506609698906005e+25) (21, -1.57596799308671772724e+25) (26, -1.80098786950111389160e-02) (133, -1.35588864993755436061e+25) (120, 1.22904018472055459000e+25) (23, -1.80997964069318265814e+25) (144, 1.36185139417648315430e-02) (136, -1.62083950584226631972e+25) (71, 1.07947198853170607549e+25) (145, -8.26548808945593501719e+24) (103, -2.27616647076566753471e+25) (131, 1.20450104519835002371e+25) (136, -2.63823312977479979929e+25) (93, 1.82688228069830744343e+24) (124, 3.70922253133669754932e+25) (64, 5.80723655014535432944e+25) (8, 2.77388282839204143919e+25) (20, 4.36566811744988398333e+25) (46, 3.62734697913152469729e+25) (126, 3.62734697913152469729e+25) (18, 3.27689211542121957084e+25) (83, 3.60798579603065506481e+25) (9, 4.26058314946038643693e+25) (50, 5.80723655014535432944e+25) (2, 4.13690653097734331202e+25) (21, 3.39452222903285161562e+25) (35, 5.92223927378654479980e-02) (11, 1.62023305892944335938e-02) (55, -1.18484273552894592285e-02) (78, 3.62734697913152469729e+25) (24, 1.95585265755653381348e-02) (65, -3.82802188396453857422e-02) (111, -2.38289473480602295132e+25) (59, -4.24315389535867036647e+25) (94, 4.79278238461137570601e+24) (42, -4.71865870490376038557e+25) (85, 2.47370819219157695815e+25) (16, -3.45449530352013861779e+25) (53, 2.87970594735067085155e+25) (116, 4.48074190470463794813e+24) (127, 6.48303744780242031896e+24) (72, -4.10056757208648521120e+25) (90, 2.51150755951514330553e+25) (12, -5.11250028612350795737e+25) (92, 4.44285393456856426978e+25) (15, 3.61095768968561339862e+25) (44, 3.19621966118226816150e+25) (96, 3.58685883991042940773e+25) (114, 5.80723655014535432944e+25) (5, 5.80723655014535432944e+25) (27, 3.36981624332739786100e+25) (89, 2.75114848358441144696e+25) (122, 2.36840132039651330401e+25) (73, 2.60616526625983927933e+25) (77, 4.39663449195597778901e+25) (14, 4.33470174294371716322e+25) (17, -3.88893039706545381326e+25) (60, -3.11686116721620635322e+25) (137, -2.92335923123657303266e+25) (87, -1.45769674891992746730e+25) (58, -3.70832439530245296698e+25) (62, -3.09463619261140803162e+25) (39, -2.45154765820762579985e+25) (34, -5.80723655014535432944e+25) (129, -5.65472022602210734024e+25) (1, 1.84568321165281110922e+25) (81, -5.80723655014535432944e+25) (48, -5.80723655014535432944e+25) (108, -2.45154765820762579985e+25) (142, 1.84568321165281110922e+25) (128, -5.65472022602210734024e+25) (4, -5.80723655014535432944e+25) (79, 3.79928258449479738956e+25) (61, 1.84568321165281110922e+25) (68, -4.97826596996771029671e+25) (132, -5.00384076337454042485e+25) (133, -3.78149189344033465099e+25) (37, -3.92340615779351376681e+25) (143, -5.11205696989545833169e+25) (125, -5.11161426858128410138e+25) (118, -7.02546230250190509231e+24) (0, -3.64137598464615989662e+25) (113, -5.80723655014535432944e+25) (97, -3.62364126084704208578e+25) (101, -5.13199113657887059125e+25) (82, -9.35919236853274123855e+24) (30, -5.80723655014535432944e+25) (141, -6.27554989911202760491e+24) (119, -4.28510307482423626962e+25) (107, -1.08029567454236819755e+25) (106, -1.04182958602905273438e-02) (99, -9.29433628853297042214e+24) (32, 8.42488951967402167160e+24) (98, -1.24071227192513155228e+25) (51, 6.35644271969795227051e-02) (54, -1.11105959312614137371e+25) (38, 7.39964767284472461866e+24) (145, -6.57404914795630518967e+24) (82, -1.81038190191891604927e+25) (133, 9.58021319708155018058e+24) (71, -2.09835697660297361458e+25) (65, 1.45307263447624943088e+24) (120, 2.95018819771790536160e+25) (14, 4.61887407400379735784e+25) (109, 2.20625133612782771713e+25) (25, 3.47230086590322701364e+25) (32, 2.88506905944514298632e+25) (19, 2.88506905944514298632e+25) (58, 2.60632974481295203463e+25) (55, 2.86967038278730172009e+25) (8, 3.38872156757894701232e+25) (62, 4.61887407400379735784e+25) (126, 3.29035304252181993551e+25) (98, 2.69987730746264282265e+25) (138, 8.90265628695487976074e-02) (86, -9.27139818668365478516e-03) (6, -9.09912437200546264648e-02) (1, 2.88506905944514298632e+25) (51, -7.99242183566093444824e-02) (64, -7.86698535084724426270e-02) (122, -1.89526798971702372907e+25) (79, -3.37485597563741245004e+25) (3, 3.81205736499970319791e+24) (4, -3.75305578508186487525e+25) (70, 1.96750642154332583394e+25) (72, -2.74758447681740911464e+25) (132, 2.29042050191703673804e+25) (60, 3.56388543061030976933e+24) (75, 5.15639059832164485746e+24) (78, -3.26144987610297103297e+25) (20, 1.99756942170351788066e+25) (11, -4.06630845333830393020e+25) (135, 3.53369624712531651697e+25) (77, 2.87203329462770136934e+25) (93, 2.54215910298779431154e+25) (28, 2.85286414613072377870e+25) (125, 4.61887407400379735784e+25) (67, 4.61887407400379735784e+25) (57, 2.68023813664996271220e+25) (128, 2.18817023534840918783e+25) (130, 1.88374239718671097686e+25) (16, 2.07285457532615132646e+25) (94, 3.49693004132997498772e+25) (63, 3.44767169047648032805e+25) (121, -3.09311799667310966174e+25) (141, -2.47904044639811969797e+25) (68, -2.32513697776187023284e+25) (117, -1.15939834570320575862e+25) (23, -2.94947036937026886152e+25) (129, -2.46136545813466606836e+25) (136, -1.94987335567289840157e+25) (92, -4.61887407400379735784e+25) (5, -4.49756847612775681564e+25) (66, 1.46799513124402408792e+25) (39, -4.61887407400379735784e+25) (100, -4.61887407400379735784e+25) (88, -1.94987335567289840157e+25) (18, 1.46799513124402408792e+25) (31, -4.49756847612775681564e+25) (56, -4.61887407400379735784e+25) (105, 3.02181991863369776109e+25) (45, 1.46799513124402408792e+25) (103, -3.95953774572197321795e+25) (9, -3.97988031736199145314e+25) (21, -3.00766390097505301823e+25) (52, -3.12054000658873181012e+25) (140, -4.06595336990869873974e+25) (99, -4.06560150904742744708e+25) (118, -5.58779058947835504991e+24) (49, -2.89622125846080054205e+25) (37, -4.61887407400379735784e+25) (102, -2.88211612449063502013e+25) (41, -4.08180744745691175652e+25) (54, -7.44393096856354135474e+24) (106, -4.61887407400379735784e+25) (119, -4.99132219429142326883e+24) (115, -3.40822172795423463016e+25) (30, -8.59225831168362897264e+24) (124, -1.10699310898780822754e-02) (83, -7.39235734060586066824e+24) (48, 6.70083369229206058697e+24) (85, -9.86816741260260160831e+24) (107, -6.77086561918258666992e-02) (34, -8.83696418956833467453e+24) (113, 5.88539775047504768061e+24) (145, -6.74762435431226987355e+24) (16, -1.85818551773519959346e+25) (91, 9.83318251699034991991e+24) (94, -2.15376425561342527165e+25) (70, 1.49144723822981286147e+24) (80, 3.02808589760877608294e+25) (82, 4.74083718442093100914e+25) (65, 2.26450703202353105779e+25) (116, 3.56398888587079927349e+25) (7, 2.96124705167753322409e+25) (100, 2.96124705167753322409e+25) (32, 2.67514708078329866150e+25) (62, 2.94544207482154478941e+25) (46, 3.47820122163207811933e+25) (9, 4.74083718442093100914e+25) (66, 3.37723551880420295275e+25) (107, 2.77116572532861104344e+25) (97, 4.02130708098411560059e-02) (69, -1.16805732250213623047e-03) (27, -5.51034547388553619385e-02) (17, 2.96124705167753322409e+25) (58, 1.48308053612709045410e-02) (24, -5.81433065235614776611e-02) (35, -1.94531234069185404296e+25) (134, -3.46396909345993222343e+25) (113, 3.91271091968191731073e+24) (106, -3.85215664067717395288e+25) (78, 2.01945365233174221727e+25) (133, -2.82013825457996500063e+25) (34, 2.35089368554401285674e+25) (120, 3.65800551054038307701e+24) (11, 5.29254023371145000622e+24) (98, -3.34756670685640033923e+25) (0, 2.05031475523260807150e+25) (112, -4.17367972101187724525e+25) (142, 3.62699948255581888462e+25) (81, 2.94787009526255689096e+25) (96, 2.60928793211437537506e+25) (137, 2.92818608050231667390e+25) (92, 4.74083718442093100914e+25) (117, 4.74083718442093100914e+25) (51, 2.75100805253280250389e+25) (139, 2.24595042941276559623e+25) (79, 1.93348582661751159642e+25) (93, 2.12758381953104324613e+25) (44, 3.58926863164977838324e+25) (25, 3.53870914009178193852e+25) (28, -3.17479312019930641450e+25) (52, -2.54450044822240789057e+25) (75, -2.38653338181118755602e+25) (108, -1.19001391107415141903e+25) (30, -3.02735040591772842166e+25) (41, -2.52635712439624927113e+25) (14, -2.00136311208634228010e+25) (141, -4.74083718442093100914e+25) (20, -4.61632801272065170310e+25) (99, 1.50676239477912162995e+25) (138, -4.74083718442093100914e+25) (119, -4.74083718442093100914e+25) (61, -2.00136311208634228010e+25) (136, 1.50676239477912162995e+25) (59, -4.61632801272065170310e+25) (71, -4.74083718442093100914e+25) (31, 3.10161829274594795460e+25) (37, 1.50676239477912162995e+25) (50, -4.06408784936968965073e+25) (115, -4.08496803497144173965e+25) (10, -3.08708268103114199170e+25) (109, -3.20293762933707596597e+25) (111, -4.17331636265097278731e+25) (121, -4.17295602820612229463e+25) (140, -5.73531932657312156405e+24) (68, -2.97269664099716655638e+25) (74, -4.74083718442093100914e+25) (67, -2.95821859199670469075e+25) (36, -4.18958815462013970416e+25) (88, -7.64049007451226078655e+24) (135, -4.74083718442093100914e+25) (129, -5.12310976989466273094e+24) (29, -3.49821660352355041007e+25) (54, -8.81914437721068072128e+24) (127, -4.26500029861927032471e-02) (101, -7.58757737216500149151e+24) (77, 6.87775660105446942206e+24) (43, -1.01286975567804096441e+25) (131, -7.51593261957168579102e-02) (45, -9.07027205271169709742e+24) (132, 6.04080405410331317450e+24) (145, -1.16691909509566657137e+25) (87, -3.21347373748028183633e+25) (122, 1.70050105376467631462e+25) (129, -3.72463698584350942267e+25) (139, 2.57913971735143500900e+24) (78, 5.23665459854913685454e+25) (112, 8.19860603117407581462e+25) (141, 3.91614688184626836952e+25) (55, 6.16341111886172929099e+25) (97, 5.12105810691010304871e+25) (27, 5.12105810691010304871e+25) (70, 4.62628977265409185483e+25) (75, 5.09372532878185673146e+25) (2, 6.01505981555652307567e+25) (69, 8.19860603117407581462e+25) (100, 5.84045357843948481481e+25) (96, 4.79236674347076615626e+25) (93, 5.77806308865547180176e-02) (79, 1.24890059232711791992e-02) (84, -8.28574076294898986816e-02) (85, 5.12105810691010304871e+25) (81, 1.41680091619491577148e-02) (5, 8.82400199770927429199e-02) (109, -3.36415038007839474718e+25) (101, -5.99045097551542149741e+25) (130, 6.76641706388043662885e+24) (54, -6.66176232843458383803e+25) (3, 3.49236023736596392764e+25) (119, -4.87703082746057898695e+25) (45, 4.06554522393564086461e+25) (15, 6.32590060662660270129e+24) (76, 9.15275499976358668062e+24) (91, -5.78914924122574593395e+25) (90, 3.54572903051934609231e+25) (102, -7.21778140272785722914e+25) (38, 6.27239229589367829530e+25) (51, 5.09792375420494409168e+25) (30, 4.51239983747109865086e+25) (1, 5.06390250662666660752e+25) (68, 8.19860603117407581462e+25) (62, 8.19860603117407581462e+25) (42, 4.75748317819399845813e+25) (48, 3.88404997406126256675e+25) (120, 3.34369019110986793762e+25) (117, 3.67936418401987966156e+25) (94, 6.20712912517230123507e+25) (115, 6.11969311255123293834e+25) (83, -5.49035963447417779645e+25) (134, -4.40035920699669569811e+25) (6, -4.12717398802651365790e+25) (107, -2.05796200028771578219e+25) (25, -5.23538400455380696501e+25) (47, -4.36898547467282083217e+25) (23, -3.46106667716889488717e+25) (135, -8.19860603117407581462e+25) (143, -7.98328590389669889185e+25) (140, 2.60571267875736750727e+25) (137, -8.19860603117407581462e+25) (106, -8.19860603117407581462e+25) (41, -3.46106667716889488717e+25) (82, 2.60571267875736750727e+25) (31, -7.98328590389669889185e+25) (133, -8.19860603117407581462e+25) (21, 5.36378765896207035730e+25) (37, 2.60571267875736750727e+25) (60, -7.02827275648563449986e+25) (131, -7.06437982465660924880e+25) (49, -5.33867103945795205564e+25) (36, -5.53902664443694253552e+25) (127, -7.21715785435172754308e+25) (124, -7.21653216701744275972e+25) (66, -9.91855991755171550777e+24) (136, -5.14086683254729881902e+25) (114, -8.19860603117407581462e+25) (10, -5.11582941252764276600e+25) (35, -7.24530171619469974800e+25) (28, -1.32132419193568000821e+25) (128, -8.19860603117407581462e+25) (34, -8.85979040719612080554e+24) (77, -6.04967233975570815307e+25) (116, -1.52515782452874800183e+25) (59, -1.42539292573928833008e-02) (111, -1.31217190985582486340e+25) (0, 1.18941729651611280270e+25) (92, -1.75162938711987361845e+25) (63, 6.88920542597770690918e-02) (18, -1.56858651067979578768e+25) (95, 1.04467156210884339376e+25) (145, -1.18615979700272456710e+25) (3, -3.26646738777318920741e+25) (19, 1.72854867886928511726e+25) (23, -3.78606033548529749763e+25) (48, 2.62171318105789988392e+24) (49, 5.32301599691966278439e+25) (77, 8.33381501929439702643e+25) (78, 3.98073135072935253167e+25) (101, 6.26505670394237968890e+25) (102, 5.20551595932965666984e+25) (94, 5.20551595932965666984e+25) (59, 4.70258809715409868114e+25) (31, 5.17773262900302726604e+25) (5, 6.11425943957268738553e+25) (71, 8.33381501929439702643e+25) (50, 5.93677330848076316090e+25) (54, 4.87139292608935721215e+25) (124, -2.26604491472244262695e-02) (41, -4.22392264008522033691e-02) (75, -4.16007526218891143799e-02) (114, 5.20551595932965666984e+25) (109, -7.16678798198699951172e-04) (85, 1.96434110403060913086e-02) (90, -3.41962798369148694618e+25) (37, -6.08924223854180154957e+25) (143, 6.87804154522444572393e+24) (74, -6.77162484459471589301e+25) (79, 3.54995965638263128814e+25) (46, -4.95745971021592917631e+25) (56, 4.13259521467402596385e+25) (14, 6.43027520396356972918e+24) (138, 9.30369279606314897297e+24) (117, -5.88462241829069004074e+25) (45, 3.60420602251971509417e+25) (42, -7.33681854161391712878e+25) (12, 6.37583689562723792800e+25) (8, 5.18199984269806223858e+25) (97, 4.58681318881209619118e+25) (28, 5.14741406054137847486e+25) (107, 8.33381501929439702643e+25) (43, 8.33381501929439702643e+25) (57, 4.83594404065941468333e+25) (123, 3.94810681654842941348e+25) (96, 3.39883130482762157727e+25) (53, 3.74004324088199856920e+25) (20, 6.30949533338851891489e+25) (62, 6.22061807449638047884e+25) (83, -5.58090293700037442074e+25) (40, -4.47292592677289124755e+25) (68, -4.19523696835296185790e+25) (44, -2.09189925473810296781e+25) (137, -5.32172176939926829778e+25) (35, -4.44103552080818654119e+25) (135, -3.51814456296779552412e+25) (66, -8.33381501929439702643e+25) (67, -8.11494418191928997582e+25) (25, 2.64868946262269697888e+25) (33, -8.33381501929439702643e+25) (80, -8.33381501929439702643e+25) (29, -3.51814456296779552412e+25) (87, 2.64868946262269697888e+25) (18, -8.11494418191928997582e+25) (132, -8.33381501929439702643e+25) (2, 5.45224908957856681731e+25) (121, 2.64868946262269697888e+25) (11, -7.14417956805017695630e+25) (6, -7.18088284751019476968e+25) (47, -5.42671378590630817709e+25) (120, -5.63037499629643676485e+25) (88, -7.33618187287266256098e+25) (99, -7.33554615649083079168e+25) (118, -1.00821023913373118623e+25) (17, -5.22564531503175824268e+25) (128, -8.33381501929439702643e+25) (36, -5.20019535951551785232e+25) (38, -7.36478896098371113079e+25) (39, -1.34311046905213312502e+25) (9, -8.33381501929439702643e+25) (129, -9.00586833730482680627e+24) (81, -6.14944134596438179803e+25) (55, -1.55030533715560187025e+25) (126, -2.08718329668045043945e-02) (82, -1.33380746216350379483e+25) (63, 1.20903036447920974148e+25) (98, -1.78051313277333339929e+25) (136, 1.06886476278305053711e-02) (51, -1.59445258152215420464e+25) (108, 1.06189860645375296353e+25) (145, -9.10759725730105899824e+24) (2, -2.50806929977348453093e+25) (29, 1.32721532544234419210e+25) (38, -2.90702322666302305217e+25) (53, 2.01299880596069658132e+24) (93, 4.08713446249926263235e+25) (36, 6.39889324639096687789e+25) (25, 3.05649937983301401077e+25) (68, 4.81045464664251434176e+25) (72, 3.99690452219657497273e+25) (17, 3.99690452219657497273e+25) (14, 3.61074621858349723314e+25) (1, 3.97557500476342217097e+25) (7, 4.69467002326679849460e+25) (115, 6.39889324639096687789e+25) (18, 4.55839188822467061450e+25) (95, 3.74036499667937449130e+25) (35, 9.03884992003440856934e-02) (78, -3.83189693093299865723e-02) (34, 7.91765078902244567871e-02) (8, 3.99690452219657497273e+25) (21, 3.85434105992317199707e-02) (37, 3.53598222136497497559e-02) (24, -2.62566099365998452550e+25) (26, -4.67545673659364948228e+25) (16, 5.28117259849850448092e+24) (70, -5.19940595040402547304e+25) (23, 2.72573576559046897644e+25) (13, -3.80645810368137475916e+25) (45, 3.17309437131297086589e+25) (94, 4.93744849502399533731e+24) (42, 7.14367928855018806339e+24) (133, -4.51834285227919950343e+25) (62, 2.76740144410594246698e+25) (89, -5.63337532496230561360e+25) (101, 4.89551496224796513717e+25) (142, 3.97885680703466758073e+25) (22, 3.52187274070898596444e+25) (136, 3.95229334000545375139e+25) (140, 6.39889324639096687789e+25) (98, 6.39889324639096687789e+25) (27, 3.71315203165863893176e+25) (102, 3.03144802598563928804e+25) (96, 2.60971094766851445364e+25) (92, 2.87168651401926981211e+25) (100, 4.84457542144708446719e+25) (86, 4.77633387183792188251e+25) (31, -4.28514330192446850461e+25) (131, -3.43441199124843676943e+25) (12, -3.22119877777236027538e+25) (33, -1.60620500663644079857e+25) (59, -4.08613833669510435585e+25) (124, -3.40993359291054136293e+25) (116, -2.70130759706831073753e+25) (144, -6.39889324639096687789e+25) (129, -6.23083977208408736153e+25) (20, 2.03372500241792222930e+25) (91, -6.39889324639096687789e+25) (122, -6.39889324639096687789e+25) (110, -2.70130759706831073753e+25) (109, 2.03372500241792222930e+25) (30, -6.23083977208408736153e+25) (82, -6.39889324639096687789e+25) (107, 4.18636629061975329032e+25) (32, 2.03372500241792222930e+25) (108, -5.48545564763974109411e+25) (80, -5.51364149242768737887e+25) (79, -4.16674837478376841675e+25) (104, -4.32312404157358912255e+25) (51, -5.63289028489044511099e+25) (90, -5.63240410913965313108e+25) (41, -7.74126356082681680442e+24) (4, -4.01236957913182326374e+25) (85, -6.39889324639096687789e+25) (44, -3.99282808618292043716e+25) (123, -5.65485178179625421520e+25) (139, -1.03126874575384537297e+25) (132, -6.39889324639096687789e+25) (74, -6.91488630924337504426e+24) (39, -4.72168081915445689409e+25) (64, -1.19035869451279208190e+25) (67, 3.47055420279502868652e-02) (48, -1.02412774025692797028e+25) (118, 9.28318519764721063690e+24) (40, -1.36711028626448926848e+25) (47, -7.33775869011878967285e-02) (134, -1.22425096501937988384e+25) (97, 8.15342841713838880981e+24) (145, -7.26699985970752032185e+24) (28, -2.00120229853813827971e+25) (34, 1.05899559938658370847e+25) (90, -2.31953083883807609968e+25) (92, 1.60619362451919218934e+24) (115, 3.26114869457331272873e+25) (140, 5.10571464186857681710e+25) (143, 2.43879806086471709381e+25) (87, 3.83828948862733878391e+25) (9, 3.18915734867979627533e+25) (39, 3.18915734867979627533e+25) (40, 2.88103832203288568639e+25) (33, 3.17213747664136221669e+25) (56, 3.74590549536812198653e+25) (11, 5.10571464186857681710e+25) (91, 3.63716844880200934768e+25) (122, 2.98446131702304488397e+25) (131, 6.45034089684486389160e-02) (102, 9.85733643174171447754e-02) (15, 6.27038404345512390137e-02) (46, 3.18915734867979627533e+25) (107, 2.04207897186279296875e-02) (86, -5.92820346355438232422e-02) (108, -2.09503276051219300347e+25) (3, -3.73057567888917080918e+25) (49, 4.21385899204015838934e+24) (93, -4.14863814456230366528e+25) (81, 2.17487560489485267328e+25) (18, -3.03719587511074760132e+25) (2, 2.53182665632146041780e+25) (136, 3.93957079449807990502e+24) (77, 5.69993040638021332265e+24) (76, -3.60521386913770944342e+25) (41, 2.20811975495637726365e+25) (65, -4.49490057787462635309e+25) (126, 3.90616020787816694054e+25) (137, 3.17475668827724245201e+25) (83, 2.81012057983151512958e+25) (109, 3.15355730230626583377e+25) (58, 5.10571464186857681710e+25) (59, 5.10571464186857681710e+25) (67, 2.96274509062745090236e+25) (116, 2.41881190165313102482e+25) (104, 2.08230117324379422248e+25) (13, 2.29133407793444111547e+25) (8, 3.86551514894287451686e+25) (4, 3.81106382831177126820e+25) (135, -3.41914202768482527955e+25) (132, -2.74033920012627343101e+25) (110, -2.57021348806452276279e+25) (124, -1.28160165957519903618e+25) (113, -3.26035331747498668463e+25) (30, -2.72080293750116170460e+25) (112, -2.15539065285474392505e+25) (127, -5.10571464186857681710e+25) (103, -4.97162383928696174732e+25) (35, 1.62272273270881096586e+25) (84, -5.10571464186857681710e+25) (142, -5.10571464186857681710e+25) (138, -2.15539065285474392505e+25) (134, 1.62272273270881096586e+25) (66, -4.97162383928696174732e+25) (105, -5.10571464186857681710e+25) (117, 3.34032901906958270899e+25) (64, 1.62272273270881096586e+25) (62, -4.37687741985470866784e+25) (21, -4.39936612609563039220e+25) (121, -3.32467281065074163397e+25) (52, -3.44944617237829949787e+25) (17, -4.49451424799517491583e+25) (55, -4.49412578760848776679e+25) (51, -6.17681152666063392368e+24) (101, -3.20149459863509338350e+25) (60, -5.10571464186857681710e+25) (63, -3.18590217068996940372e+25) (26, -4.51203962910571149394e+25) (88, -8.22858400716659889485e+24) (54, -5.10571464186857681710e+25) (31, -5.51745113165697663789e+24) (29, -3.76745677181984735012e+25) (7, -9.49799434352995027911e+24) (100, -5.66022098064422607422e-03) (111, -8.17164171906625349825e+24) (139, 7.40711631694440603582e+24) (48, -1.09082924230728121183e+25) (118, -2.54424288868904113770e-02) (19, -9.76840009813045034982e+24) (114, 6.50569675051832837983e+24) (145, -1.33700516048425177380e+25) (4, -3.68188580571826791089e+25) (106, 1.94837676852414398648e+25) (113, -4.26755530438663606999e+25) (119, 2.95516907086221870839e+24) (123, 5.99997949850578917083e+25) (98, 9.39368275594130168815e+25) (128, 4.48699248479957721484e+25) (12, 7.06182972603195111925e+25) (26, 5.86752229846245355301e+25) (86, 5.86752229846245355301e+25) (55, 5.30063669867891765805e+25) (37, 5.83621113696049187846e+25) (2, 6.89185460677239887962e+25) (22, 9.39368275594130168815e+25) (140, 6.69179542002096009327e+25) (28, 5.49089747106054467339e+25) (40, 9.50978770852088928223e-02) (84, -9.66295599937438964844e-02) (138, 1.40744820237159729004e-02) (116, 5.86752229846245355301e+25) (36, -8.66541862487792968750e-02) (14, 3.95195558667182922363e-02) (137, -3.85450707927817682682e+25) (5, -6.86364493261776644651e+25) (56, 7.75293003061686780612e+24) (142, -7.63281166853354206811e+25) (75, 4.00144077718717378593e+25) (97, -5.58794148821299253446e+25) (135, 4.65816534842063788075e+25) (132, 7.24836435679770011134e+24) (27, 1.04871206068151641042e+25) (59, -6.63300112750774224431e+25) (10, 4.06260453071017582128e+25) (39, -8.26990213000983621885e+25) (11, 7.18669615708694431043e+25) (133, 5.84102732255397255494e+25) (46, 5.17016273785955145608e+25) (125, 5.80203177652266259207e+25) (122, 9.39368275594130168815e+25) (131, 9.39368275594130168815e+25) (89, 5.45096923135448357420e+25) (76, 4.45021703621325496223e+25) (50, 3.83109817739865261825e+25) (108, 4.21568549423189322336e+25) (24, 7.11191830764468238559e+25) (134, 7.01174114441922500687e+25) (127, -6.29065862933080838704e+25) (18, -5.04176933656752025921e+25) (72, -4.72877154773353996579e+25) (25, -2.35793144603592638102e+25) (100, -5.99851659193618849407e+25) (99, -5.00584016540068374370e+25) (35, -3.96556428919516040601e+25) (66, -9.39368275594130168815e+25) (64, -9.14697707430342274497e+25) (79, 2.98554847508604581105e+25) (124, -9.39368275594130168815e+25) (101, -9.39368275594130168815e+25) (58, -3.96556428919516040601e+25) (62, 2.98554847508604581105e+25) (9, -9.14697707430342274497e+25) (21, -9.39368275594130168815e+25) (141, 6.14565750981283767134e+25) (83, 2.98554847508604581105e+25) (126, -8.05274063691376683636e+25) (102, -8.09411938816849618603e+25) (117, -6.11685535031976208567e+25) (103, -6.34641855971991217441e+25) (104, -8.26918237989612898977e+25) (118, -8.26846979651997405911e+25) (70, -1.13642241621982397921e+25) (53, -5.89021796661370025935e+25) (87, -9.39368275594130168815e+25) (94, -5.86153155766569925062e+25) (3, -8.30141702195421215436e+25) (44, -1.51390584189337719160e+25) (6, -9.39368275594130168815e+25) (32, -1.01510615713469237696e+25) (68, -6.93150669913444720795e+25) (51, -1.74744995602302505226e+25) (109, 8.12706425786018371582e-02) (82, -1.50341913834243281251e+25) (57, 1.36277807484885958897e+25) (136, -2.00692644521206106890e+25) (16, 7.05576315522193908691e-02) (13, -1.79720957073912515422e+25) (129, 1.19693153225598648189e+25) (145, -7.97397077943567628055e+24) (22, -2.19589853768844910180e+25) (72, 1.16202702311844438627e+25) (104, -2.54519631049692687127e+25) (112, 1.76249451419029035863e+24) (127, 3.57842600272712478627e+25) (103, 5.60245116438334423265e+25) (126, 2.67607016519095510190e+25) (9, 4.21171883951066769743e+25) (37, 3.49943030132259441250e+25) (14, 3.49943030132259441250e+25) (46, 3.16133515308920938126e+25) (43, 3.48075561179528598305e+25) (69, 4.11034652851673927097e+25) (96, 5.60245116438334423265e+25) (83, 3.99102989167789037878e+25) (28, 3.27480802273092160570e+25) (108, 6.89537599682807922363e-02) (53, 1.98885202407836914062e-02) (135, -1.39690339565277099609e-02) (71, 3.49943030132259441250e+25) (21, 2.28170379996299743652e-02) (128, 5.48494681715965270996e-02) (97, -2.29885332481486781615e+25) (5, -4.09352167454295653750e+25) (48, 4.62388749866893979733e+24) (59, -4.55225782965489152662e+25) (50, 2.38647818297585853467e+25) (17, -3.33268461876494901518e+25) (100, 2.77815355679158161658e+25) (49, 4.32294526757423262414e+24) (38, 6.25453177603297637512e+24) (91, -3.95596458872660890432e+25) (74, 2.42295686946068602710e+25) (27, -4.93221732085238235042e+25) (30, 4.28619183104157101012e+25) (60, 3.48362940848310860623e+25) (68, 3.08351637969635890703e+25) (2, 3.46036639168740263964e+25) (142, 5.60245116438334423265e+25) (140, 5.60245116438334423265e+25) (67, 3.25099249125368839946e+25) (129, 2.65413966276374963086e+25) (32, 2.28488928900304067153e+25) (138, 2.51425921774343791302e+25) (23, 4.24159251096734839530e+25) (77, 4.18184516805404627011e+25) (106, -3.75178854994889101908e+25) (124, -3.00694363360344446652e+25) (10, -2.82026862058007460661e+25) (143, -1.40628537812940950245e+25) (93, -3.57755199098259161387e+25) (92, -2.98551169724748290295e+25) (90, -2.36508795273927374762e+25) (119, -5.60245116438334423265e+25) (101, -5.45531462113088461949e+25) (89, 1.78060138497861655252e+25) (36, -5.60245116438334423265e+25) (102, -5.60245116438334423265e+25) (64, -2.36508795273927374762e+25) (63, 1.78060138497861655252e+25) (12, -5.45531462113088461949e+25) (80, -5.60245116438334423265e+25) (7, 3.66531252561540131576e+25) (4, 1.78060138497861655252e+25) (110, -4.80270335539885589398e+25) (44, -4.82738159408891804883e+25) (82, -3.64812914141017620307e+25) (54, -3.78504266416862946080e+25) (15, -4.93178997431856733587e+25) (130, -4.93136456703960518010e+25) (131, -6.77770795563758918199e+24) (76, -3.51296432564068948619e+25) (39, -5.60245116438334423265e+25) (55, -3.49585536545645948106e+25) (57, -4.95101696968855672198e+25) (139, -9.02906409075026784000e+24) (118, -5.60245116438334423265e+25) (122, -6.05418269644179871524e+24) (13, -4.13399362718567126532e+25) (115, -1.04219622082324165485e+25) (79, 9.89527925848960876465e-02) (19, -8.96656506459415193321e+24) (42, 8.12770508710801112564e+24) (75, -1.19694747886503429952e+25) (98, -9.78029891848564147949e-02) (18, -1.07187029124985095035e+25) (62, 7.13859574127661560313e+24) (176, -6.99102373725952758789e+11) (170, -1.92437222131446240234e+12) (156, 1.01760289330943994141e+12) (163, -2.23038550005679882812e+12) (161, 1.53987658270632781982e+11) (150, 3.13560243182707812500e+12) (158, 4.90898362200228906250e+12) (172, 2.34491118015694433594e+12) (151, 3.69039738688916308594e+12) (148, 3.06616110958920507812e+12) (155, 3.06616110958904687500e+12) (164, 2.76996677059400830078e+12) (174, 3.04983897413318945312e+12) (157, 3.60156249788101708984e+12) (169, 4.90898362200228710938e+12) (152, 3.49706492820719091797e+12) (171, 2.86957275024097216797e+12) (162, -8.43967497348785400391e-03) (160, 9.24425944685935974121e-02) (176, -1.72448357837325659180e+12) (165, -4.74694258223637500000e+12) (147, 2.51019509091035742188e+12) (170, -5.50179754023958203125e+12) (149, 3.79875619659481384277e+11) (161, 7.73475671275616015625e+12) (156, 1.21092599223038808594e+13) (166, 5.78432532467601171875e+12) (159, 9.10331247077796484375e+12) (155, 7.56347092829486914062e+12) (157, 